[array([[[[-5.69081418e-02, -1.03996955e-01,  8.47963467e-02,
          -4.97265995e-01, -4.29082274e-01,  1.61420822e-01,
           2.04265431e-01,  1.90379506e-03,  5.78501105e-01,
          -5.88829592e-02, -5.47415376e-01,  4.58445996e-01,
          -8.44601691e-02, -2.65474796e-01, -1.60207272e-01,
           3.96358185e-02, -4.11235720e-01, -2.34251276e-01,
           7.39528537e-02,  4.51593190e-01,  7.42534772e-02,
          -3.17288004e-02, -1.48646519e-01,  5.08242369e-01,
          -8.27976912e-02,  1.68050826e-01, -1.80865288e-01,
          -2.14625411e-02,  1.41410276e-01, -2.62274027e-01,
          -1.81779061e-02, -3.73589247e-01],
         [-2.87860613e-02, -1.29455060e-01,  1.34631112e-01,
          -3.67302686e-01,  1.84692368e-02,  4.70452855e-04,
          -5.16350627e-01, -1.23991288e-01,  2.56931782e-01,
          -1.17669642e-01,  3.74457449e-01,  8.27334747e-02,
          -1.97899044e-01, -3.66669148e-01, -3.79238315e-02,
           1.92957237e-01, -2.78160483e-01,  1.24643885e-01,
          -4.79090363e-01,  2.30516754e-02, -6.56109909e-03,
          -7.60964081e-02,  2.19533384e-01, -2.76599526e-01,
          -5.05646653e-02, -5.11105478e-01, -3.44225198e-01,
           5.04779490e-03,  4.29856926e-02, -3.68329346e-01,
           1.71103448e-01,  4.92938042e-01],
         [ 2.69453395e-02, -1.86195984e-01,  8.16681683e-02,
          -1.17022283e-01,  5.25937974e-01, -1.47012882e-02,
          -6.70891777e-02,  3.27292740e-01,  4.33630735e-01,
           8.75360370e-02,  5.51507510e-02, -7.90415168e-01,
          -3.92691046e-01, -2.13710114e-01, -1.16011880e-01,
          -8.37562829e-02, -2.68310815e-01,  2.52797097e-01,
           3.44722420e-01, -3.25570814e-02,  3.18923220e-02,
          -1.66971460e-01, -1.33833557e-01,  3.34099494e-02,
           6.26860783e-02,  3.91104221e-01, -1.17723919e-01,
           9.31295156e-02,  1.13253318e-01, -4.00358409e-01,
          -2.16823801e-01, -1.53589532e-01]],

        [[ 1.90734699e-01, -8.90183151e-02,  1.40851298e-02,
           3.95564586e-01, -1.56447732e+00, -9.32083488e-01,
           1.35039940e-01, -3.12360823e-01,  4.84932452e-01,
           4.70844150e-01, -2.05090374e-01, -3.28716040e-01,
           9.24608111e-02,  1.78577870e-01,  5.10092936e-02,
           1.60489678e-01, -7.51291215e-01,  3.30119282e-01,
           6.55228794e-02,  3.62296641e-01, -2.41412371e-01,
           9.88665447e-02, -5.51061690e-01,  8.11656952e-01,
           5.04401810e-02, -2.03402396e-02,  1.41295898e+00,
           7.38285705e-02, -4.50302549e-02, -9.55924541e-02,
           2.88554192e-01, -1.07331860e+00],
         [-8.59958678e-02, -1.15779020e-01,  2.12968558e-01,
           7.50129968e-02,  1.86632842e-01, -6.34392738e-01,
          -1.90603197e-01, -2.89675951e-01,  1.04522981e-01,
          -3.73051107e-01,  1.32657200e-01, -1.34692714e-01,
           2.10742086e-01,  2.04129994e-01, -5.40837906e-02,
           1.87020451e-01, -9.22042668e-01,  6.44202456e-02,
          -9.92260277e-01,  4.88550030e-02, -2.42427930e-01,
           1.00610743e-03,  3.90905321e-01, -3.72808963e-01,
          -3.42190824e-02,  1.32431444e-02,  1.79808450e+00,
          -1.00820690e-01, -1.18152589e-01,  9.64474399e-03,
           6.35197401e-01,  1.13497329e+00],
         [ 1.11226633e-01, -1.66034907e-01,  1.95235878e-01,
           2.62410700e-01,  1.41844261e+00, -2.73904592e-01,
           5.23339398e-02,  6.37075186e-01,  4.36477602e-01,
          -2.23874077e-01,  7.93423578e-02,  1.08107135e-01,
           1.66216902e-02,  2.33391613e-01,  2.32701346e-01,
          -2.15147763e-01, -3.53694141e-01, -1.63287669e-01,
           9.32209909e-01,  2.00947702e-01, -2.44716957e-01,
           4.16428708e-02, -4.29101624e-02, -9.79612172e-02,
           3.08187962e-01, -1.38232913e-02,  6.58503711e-01,
          -8.34034607e-02, -2.73938864e-01,  3.21781524e-02,
          -8.61110687e-01, -4.66546863e-02]],

        [[-9.04937182e-03, -2.60845665e-02, -8.03831369e-02,
           1.27427094e-02, -5.37388086e-01,  1.91842318e-01,
          -9.01492611e-02, -1.49707729e-02,  8.38204443e-01,
          -7.04224259e-02,  5.63903749e-01, -4.55088913e-01,
           3.43505405e-02,  1.27091527e-01, -9.11680311e-02,
           1.26571491e-01, -2.18909547e-01,  3.71840864e-01,
           1.45221636e-01,  2.19580512e-02, -2.84631371e-01,
           3.01093273e-02, -1.29556671e-01,  3.33941609e-01,
          -2.42706630e-02, -1.79933980e-01, -1.82581648e-01,
          -1.79035924e-02, -2.15343870e-02, -1.26169801e-01,
          -7.38952756e-02, -4.04168576e-01],
         [-7.04128621e-03,  1.22071207e-01,  9.10724625e-02,
          -3.74924004e-01,  2.59633642e-02,  1.22601449e-01,
           3.37191343e-01, -2.47148335e-01,  5.42013109e-01,
          -1.71848848e-01, -2.88374275e-01, -8.11782032e-02,
           9.24956501e-02,  1.78387180e-01, -5.44602834e-02,
           1.44173279e-01, -3.33177984e-01, -1.80813491e-01,
          -8.47453356e-01,  1.45809418e-02, -2.54906744e-01,
          -1.11646235e-01,  2.49636754e-01, -3.60852122e-01,
          -1.53077915e-01,  3.89609993e-01, -1.96880192e-01,
           6.86799884e-02,  7.35919476e-02,  3.88319865e-02,
           3.33707780e-01,  6.78988457e-01],
         [-6.06039129e-02,  4.11805436e-02,  1.39514729e-01,
          -1.27557576e-01,  6.62788689e-01,  8.42532795e-03,
          -8.60926285e-02,  3.27794105e-01,  7.27162242e-01,
           2.11627722e-01, -1.84621215e-01,  4.85332519e-01,
           2.82786041e-01,  1.65816352e-01, -4.86296788e-02,
          -1.34402454e-01, -2.45395765e-01, -1.29979089e-01,
           7.29374588e-01,  9.12189856e-02, -2.43228555e-01,
           2.18510404e-02, -5.57632111e-02,  1.61681592e-01,
           9.01260823e-02, -2.60412246e-01, -1.64477751e-01,
          -1.44169824e-02, -1.00497641e-01,  1.89022988e-01,
          -3.28613073e-01, -2.81502515e-01]]],


       [[[ 1.05263829e-01, -1.13111839e-03, -1.82908103e-01,
          -7.94682875e-02,  5.31670228e-02,  1.45906061e-02,
           3.00651848e-01, -4.28003609e-01,  8.00001994e-02,
           6.25899971e-01, -9.00671005e-01,  1.65097725e+00,
          -1.38249433e+00, -2.21522316e-01,  1.05128020e-01,
           9.75513980e-02,  8.30514506e-02, -9.60451901e-01,
           2.12087501e-02,  3.08259159e-01,  3.08302939e-02,
           1.30928336e-02, -5.34255147e-01,  7.12093055e-01,
          -1.50738895e-01,  3.85595948e-01, -1.12235658e-01,
           3.50187778e-01,  1.23418011e-01, -1.97295204e-01,
           2.96964407e-01,  1.17881857e-02],
         [ 5.35969846e-02, -6.12155860e-03, -1.76550165e-01,
          -1.26310304e-01, -2.62470692e-02, -1.96899963e-03,
          -3.45621854e-01, -2.51830578e-01, -1.81077302e-01,
          -3.39114785e-01,  6.91762209e-01,  4.82771844e-01,
          -1.95087290e+00, -3.67898852e-01,  3.19069475e-02,
           1.82051763e-01,  4.71415371e-02, -2.81826317e-01,
           4.27336931e-01,  2.09589496e-01,  1.22724578e-03,
          -9.49211046e-02,  4.89958733e-01, -4.32318151e-01,
          -1.00220576e-01, -5.62560260e-01, -1.55598700e-01,
           4.05011564e-01,  4.26325127e-02, -1.56154577e-02,
           4.00752008e-01, -1.56626627e-01],
         [ 6.26182258e-02, -8.71744826e-02, -2.07255960e-01,
          -8.18063989e-02, -9.68833715e-02, -5.00396919e-03,
          -1.02482758e-01,  5.36015451e-01,  1.48403756e-02,
          -1.45791560e-01,  5.64296484e-01, -1.02972960e+00,
          -1.56951964e+00, -3.01724344e-01,  1.20650738e-01,
          -5.87712862e-02,  1.76883951e-01,  3.05629790e-01,
          -4.26672935e-01,  1.65546909e-01,  3.50156426e-02,
          -2.88927734e-01,  1.35015771e-01, -3.90356243e-01,
           1.81074053e-01,  4.96821493e-01, -4.14614752e-02,
           6.00891590e-01,  1.64209381e-01, -1.09687150e-01,
          -6.22691929e-01,  1.79745451e-01]],

        [[ 7.52186810e-04, -2.14624763e-01, -1.03875108e-01,
           1.00529468e+00, -6.37574196e-02,  3.79036009e-01,
           8.37997533e-03, -7.65202045e-01, -2.45723158e-01,
           1.12911999e+00, -5.16267419e-01,  1.08459942e-01,
           8.53380322e-01, -1.15539335e-01,  3.44956696e-01,
          -3.24579298e-01, -4.93429124e-01,  1.47107229e-01,
           3.87086459e-02, -6.24579072e-01,  1.06637470e-01,
           4.13524032e-01, -1.01514316e+00,  1.06337762e+00,
           4.61031310e-02,  1.00509003e-01, -7.03768611e-01,
          -3.92260969e-01,  1.63345680e-01, -1.42936856e-01,
           7.68527031e-01, -2.56067663e-01],
         [-1.24119788e-01, -2.19948605e-01,  1.00339137e-01,
           5.80331504e-01,  1.32633880e-01,  7.20049590e-02,
          -2.75706381e-01, -2.71519631e-01, -5.79353273e-01,
          -7.76214421e-01,  1.14206888e-01, -1.83546960e-01,
           1.22263348e+00, -8.46067965e-02,  9.92560014e-02,
          -3.29628617e-01, -8.44107389e-01,  1.67578533e-02,
           1.33467585e-01, -5.80667675e-01,  1.26292631e-01,
           4.16112483e-01,  5.96770585e-01, -5.59342086e-01,
           9.32655204e-03,  1.40534103e-01, -8.54023695e-01,
          -6.68237329e-01,  8.83795545e-02,  9.16739404e-02,
           8.10523510e-01, -2.26395503e-02],
         [ 4.76121530e-02, -2.34690920e-01,  7.46743158e-02,
           3.49136025e-01, -6.65322617e-02,  7.13476241e-02,
          -9.75797921e-02,  9.69302177e-01, -1.72692105e-01,
          -8.04529309e-01,  4.66594100e-01,  9.55560729e-02,
           7.68832028e-01, -4.25538681e-02,  4.03432667e-01,
          -1.37237296e-01, -2.25504085e-01, -9.55437720e-02,
          -2.00803787e-01, -6.10690899e-02,  1.20093331e-01,
           3.45302701e-01,  2.10071877e-01, -6.11225426e-01,
           5.12580037e-01, -9.81484577e-02, -3.96297961e-01,
          -5.70145428e-01,  1.89742118e-01,  1.43215701e-01,
          -1.35975087e+00,  3.30897927e-01]],

        [[ 1.15983374e-01,  6.65964326e-03, -5.64255342e-02,
           6.23277843e-01,  1.07249111e-01,  2.67753080e-02,
          -1.39500216e-01, -3.77363831e-01,  6.38257414e-02,
           5.34830213e-01,  1.53484750e+00, -1.08648562e+00,
           2.99006760e-01,  3.06776255e-01, -5.93042793e-03,
          -1.33454755e-01,  4.43801790e-01,  4.73452777e-01,
           1.18554056e-01, -3.80151659e-01, -1.45449787e-01,
           2.04246283e-01, -3.79513353e-01,  4.82463449e-01,
           3.43195745e-03, -3.32862884e-01, -2.43855566e-01,
           2.96600796e-02,  2.74176467e-02, -1.36148885e-01,
           3.12978059e-01, -1.67813048e-01],
         [ 8.80070031e-02,  8.29876214e-02,  1.33390367e-01,
           2.13759601e-01, -1.02952778e-01, -5.14322892e-02,
           3.69448394e-01, -2.60342598e-01, -1.25151455e-01,
          -2.64443517e-01, -9.24997747e-01, -1.49020910e-01,
           7.55661964e-01,  3.94448698e-01, -4.98162210e-02,
          -2.00864732e-01,  1.81989253e-01, -3.10231328e-01,
          -3.17026496e-01, -2.30208814e-01, -3.31612863e-02,
           1.77255750e-01,  3.67210686e-01, -5.00494301e-01,
          -3.52352001e-02,  5.35330594e-01, -1.05606206e-01,
           1.53818354e-01, -3.48383095e-03,  3.66077647e-02,
           3.78612608e-01,  1.27245292e-01],
         [ 4.47921902e-02,  1.02272727e-01,  1.09530605e-01,
           9.35191661e-02, -1.17660671e-01, -5.56453615e-02,
          -4.90185693e-02,  5.61829150e-01,  7.84407109e-02,
           8.19795299e-03, -1.07546782e+00,  9.21984255e-01,
           7.36804366e-01,  2.26219997e-01,  1.08008020e-01,
          -4.02180180e-02,  2.98287719e-01, -3.17077279e-01,
           2.45779723e-01, -8.05148482e-02, -5.59655949e-02,
           3.07769775e-01,  1.97906449e-01, -2.27777556e-01,
           3.00510466e-01, -4.53444302e-01,  3.35048661e-02,
          -1.32774085e-01,  2.28881072e-02,  2.09673658e-01,
          -6.13321781e-01,  3.18846777e-02]]],


       [[[ 2.82928962e-02, -6.06140355e-03, -7.70931989e-02,
          -4.97610211e-01,  6.01884544e-01,  4.05189581e-02,
           5.95604889e-02,  4.07765694e-02, -3.09223175e-01,
          -6.59757257e-02, -3.70098710e-01,  3.66945982e-01,
           1.43057942e-01,  6.51218817e-02, -5.85941039e-02,
          -1.02397269e-02,  4.97395545e-01, -1.45423636e-01,
          -1.35741755e-01,  2.14380518e-01, -1.90893970e-02,
           6.92527788e-03, -2.48825178e-01,  2.27593139e-01,
          -2.21693531e-01,  1.04688346e-01,  4.33533192e-02,
          -2.54842132e-01,  1.51655987e-01, -8.98692831e-02,
          -1.10600747e-01,  5.79909027e-01],
         [ 5.91142885e-02,  6.00520857e-02, -2.38749385e-01,
          -4.02244925e-01, -2.60849893e-02,  4.72779348e-02,
           5.42571470e-02, -1.18994392e-01, -3.60620737e-01,
          -2.60687262e-01,  2.68416971e-01, -1.68602601e-01,
           1.63343512e-02, -1.06366938e-02,  8.51727054e-02,
           9.39285830e-02,  2.87465245e-01,  2.75415540e-01,
           7.22950816e-01,  2.55906522e-01, -1.82838235e-02,
          -9.51619372e-02,  1.86419681e-01, -2.12669075e-01,
          -1.53497189e-01, -3.06720734e-01,  8.50423984e-03,
          -6.44369364e-01, -4.16649170e-02,  9.72118974e-02,
           1.46355644e-01, -6.51599050e-01],
         [-1.04124518e-03, -2.45034602e-02, -3.05913270e-01,
          -3.16205293e-01, -6.53604686e-01,  2.99652498e-02,
          -6.52429322e-03,  2.98689663e-01, -2.58070022e-01,
           2.76564747e-01,  9.44482237e-02, -2.90581405e-01,
          -1.65068656e-01, -1.35329673e-02, -4.98841591e-02,
          -3.07877455e-02,  2.96089679e-01,  1.04091823e-01,
          -5.64708710e-01, -7.87327625e-03,  2.14491095e-02,
          -3.11964273e-01, -5.79098351e-02, -4.62857187e-02,
          -7.04629906e-03,  1.56855181e-01,  3.51499952e-02,
          -4.25183028e-01, -1.64430708e-01,  8.50644559e-02,
          -2.94984388e-03,  9.85005051e-02]],

        [[-6.33683860e-01,  5.64302243e-02, -1.18198864e-01,
           1.96122468e-01,  1.15817904e+00,  6.32921532e-02,
          -3.28737870e-02, -3.28330934e-01, -5.43238044e-01,
           3.57443303e-01, -2.38619253e-01, -1.13895781e-01,
          -4.01889049e-02,  6.76865727e-02, -1.17444858e-01,
          -5.80262914e-02,  5.55089533e-01, -9.07751992e-02,
          -2.09486246e-01, -2.80609518e-01,  7.52886534e-02,
           6.10366240e-02, -3.95231366e-01,  3.15005302e-01,
          -7.39496425e-02, -6.40034899e-02,  2.78388895e-02,
           3.00322860e-01,  1.35943323e-01, -5.66897951e-02,
           7.52457231e-02,  1.52454209e+00],
         [-3.54445189e-01,  1.01946659e-01, -1.46945268e-01,
          -2.29802299e-02, -3.74188609e-02, -1.31522417e-01,
           1.18136816e-01, -2.94027567e-01, -6.24476194e-01,
          -1.37486488e-01,  9.54245552e-02, -1.56005710e-01,
           5.61129861e-02,  4.84654270e-02, -4.42027338e-02,
          -1.03123665e-01,  1.27112612e-01,  4.12096269e-02,
           1.05470347e+00, -2.16435388e-01,  9.63143036e-02,
          -1.17037803e-01,  4.23438400e-01, -2.34974504e-01,
          -6.92558214e-02,  1.38297871e-01, -1.56491205e-01,
           7.12411106e-01, -2.16739927e-03, -1.02046719e-02,
           2.41684064e-01, -1.29792321e+00],
         [-4.17981863e-01,  1.98131539e-02, -1.96630955e-01,
           5.66042028e-03, -1.10902226e+00,  3.62598114e-02,
          -6.90801591e-02,  4.54943210e-01, -4.90417272e-01,
           9.59745198e-02,  2.18652740e-01,  1.19571708e-01,
           1.15757957e-01,  1.46949496e-02,  1.01531319e-01,
          -3.95272449e-02,  3.23596835e-01, -5.73145878e-03,
          -8.39361846e-01, -2.01153845e-01,  9.62580666e-02,
          -9.36611667e-02,  1.88874215e-01, -2.06424460e-01,
           2.86350399e-01, -7.78153166e-02, -6.34037107e-02,
           6.09919906e-01, -6.71138763e-02,  8.72032121e-02,
          -4.93766665e-01, -2.57989109e-01]],

        [[ 5.13417833e-02, -2.47063600e-02,  3.06211971e-03,
          -2.41830479e-02,  6.49413347e-01,  4.45480421e-02,
          -1.72883913e-01, -2.72131469e-02, -4.47453320e-01,
          -1.25389472e-01,  5.78395367e-01, -5.34408987e-01,
          -1.22206427e-01, -5.38429171e-02, -4.66660522e-02,
           1.38124600e-01,  8.22731376e-01,  1.51869908e-01,
          -1.07081726e-01, -6.24935422e-03, -1.14319153e-01,
          -8.89827497e-03, -1.59096763e-01,  4.64895256e-02,
          -8.69788080e-02, -2.17356846e-01, -7.25140199e-02,
          -8.35095644e-02,  8.54491070e-03, -1.92788970e-02,
          -8.58077332e-02,  2.12743953e-01],
         [ 7.83588588e-02,  2.55817398e-02, -1.36256628e-02,
          -1.80053025e-01, -9.89655331e-02, -3.56933251e-02,
           4.26907510e-01, -1.35846898e-01, -3.80382985e-01,
          -7.07384869e-02, -2.65910447e-01,  1.22253232e-01,
          -4.18424010e-02,  2.88601872e-02,  2.82939058e-02,
          -2.34808587e-02,  3.69976223e-01, -2.85074860e-02,
           3.18977058e-01,  6.52400702e-02, -2.25947052e-02,
          -9.02947709e-02,  3.57052386e-02, -2.38874301e-01,
          -2.80629154e-02,  3.19554627e-01,  9.77444947e-02,
           4.19299640e-02, -3.70486900e-02, -3.29548381e-02,
          -3.13217491e-02, -3.37470084e-01],
         [ 1.95183679e-02,  3.09121888e-02, -4.75075580e-02,
          -2.03825280e-01, -6.34170711e-01,  1.39964577e-02,
          -5.87157793e-02,  2.34324127e-01, -4.04696196e-01,
           2.79594839e-01, -2.77105361e-01,  4.97204900e-01,
           1.84931725e-01, -7.23522343e-03, -2.71514468e-02,
           4.39907610e-02,  4.03241515e-01, -1.09190501e-01,
          -2.59601861e-01, -1.29797027e-01, -1.70327388e-02,
           3.49443890e-02,  1.38363019e-01,  5.89802228e-02,
           1.30715773e-01, -1.11629322e-01,  1.85671691e-02,
          -4.17330638e-02, -6.14598170e-02,  1.35298207e-01,
           1.08059630e-01,  1.70712158e-01]]]], dtype=float32), array([ 2.6276758 ,  1.3507318 ,  1.616033  ,  0.9730658 , -1.0798728 ,
        2.6377099 ,  0.9629411 ,  1.5748515 ,  0.88948196, -1.2381896 ,
        1.1882046 ,  1.1284078 ,  1.8550909 ,  1.6006273 ,  2.4492726 ,
        1.8418869 ,  0.9722997 ,  1.508119  ,  1.0854039 ,  1.1854111 ,
        1.7143615 , -2.169929  , -0.98830175, -1.3936868 ,  0.63826686,
        1.5026582 ,  1.8154227 ,  1.1480769 ,  2.1830866 ,  2.167416  ,
        1.1637379 ,  1.1269748 ], dtype=float32), array([-4.3106194 , -0.74975115, -2.1218922 ,  1.7397231 ,  1.3970593 ,
       -3.092425  , -0.40580612,  0.7807722 ,  1.9220121 ,  1.3409774 ,
        0.71489793,  2.6123273 ,  2.2509568 , -2.0074043 , -3.7857215 ,
       -2.035155  ,  3.8077035 , -1.0385133 , -0.32323685, -0.34870732,
       -3.5320024 , -2.5781553 ,  0.69793093,  0.41897526,  2.3507116 ,
       -1.7821484 ,  2.5381765 , -0.34461942, -2.7225952 , -2.705412  ,
        0.95418614, -0.22974175], dtype=float32), array([-0.3264578 , -0.46044585, -0.2661407 ,  0.1889671 , -0.01059079,
       -0.38326472, -0.11161523,  0.06070615, -0.24137107,  0.00628474,
        0.01948293, -0.0015719 , -0.02062033,  0.08179319,  0.35374114,
       -0.24383934, -0.2185672 , -0.1867744 , -0.00286533, -0.19461812,
       -0.5241939 ,  0.32278445,  0.02128257, -0.04406416,  0.3324194 ,
        0.06242724,  0.01805749, -0.00390808,  0.256814  , -0.41861674,
        0.08485906,  0.04351225], dtype=float32), array([0.02786623, 0.04792129, 0.02590107, 0.04480879, 0.00553472,
       0.03750091, 0.00562387, 0.03513142, 0.13748598, 0.01563003,
       0.00356181, 0.0077595 , 0.14859705, 0.02140788, 0.02801349,
       0.01493282, 0.12259133, 0.00978562, 0.00141658, 0.02656451,
       0.06638922, 0.03300278, 0.02338207, 0.04072684, 0.02835544,
       0.00200537, 0.03236597, 0.00236948, 0.01683802, 0.04863267,
       0.03398726, 0.00231834], dtype=float32), array([[[[ 5.34654520e-02,  4.58807423e-04,  1.34210624e-02, ...,
          -9.63715743e-03, -1.67757478e-02, -3.42300422e-02],
         [ 3.70745547e-02, -5.58982976e-03,  2.17014793e-02, ...,
           2.06689015e-02,  7.19497129e-02,  4.39398587e-02],
         [ 1.91610716e-02,  8.75923410e-03, -2.21630465e-03, ...,
          -2.15428788e-02,  3.52199078e-02,  3.22002731e-02],
         ...,
         [ 1.22375349e-02,  3.37665230e-02, -1.17769437e-02, ...,
           4.48518805e-02,  5.72855808e-02,  3.96223813e-02],
         [ 7.01005310e-02,  2.77152508e-02,  3.24178599e-02, ...,
          -4.33960073e-02,  1.70915350e-01,  7.43593974e-03],
         [ 1.42251942e-02, -3.68043631e-02, -5.24423569e-02, ...,
           2.69208979e-02, -1.19133033e-02,  5.31725399e-02]],

        [[-9.48249400e-02, -2.09465176e-02, -3.19086015e-02, ...,
          -3.21053229e-02, -6.77459463e-02, -4.30449024e-02],
         [-8.04686081e-03, -7.99871422e-03, -1.42061170e-02, ...,
          -6.76000165e-03,  2.21467465e-02,  5.92943691e-02],
         [-1.68846529e-02,  5.50831994e-03, -4.21294244e-03, ...,
          -1.64065361e-02, -2.70413957e-03,  3.29818431e-04],
         ...,
         [-2.16623954e-02,  2.48651300e-02, -5.21343499e-02, ...,
           7.05343634e-02,  7.75832981e-02,  3.93131226e-02],
         [-2.89347917e-02, -2.02479940e-02,  6.24289066e-02, ...,
          -6.18223138e-02,  3.73103805e-02,  4.46056612e-02],
         [-8.30214396e-02,  1.23111336e-02,  4.66166809e-02, ...,
           1.21867381e-01, -2.50216555e-02, -8.57777521e-02]],

        [[ 9.95479152e-02, -2.42413823e-02,  2.96040028e-02, ...,
          -1.13688447e-02, -2.98324283e-02, -1.58556271e-02],
         [ 1.63580403e-02, -8.95947311e-03,  9.76791829e-02, ...,
          -4.65665804e-03,  4.00954112e-02,  5.18611148e-02],
         [-5.25902547e-02,  3.38189341e-02, -4.08538394e-02, ...,
           5.87577606e-03, -2.79969666e-02, -8.71071871e-03],
         ...,
         [ 2.13766191e-02,  3.04014832e-02, -1.82929989e-02, ...,
           5.82466759e-02,  6.60070404e-02,  1.22704348e-02],
         [-5.43084815e-02,  2.34425999e-02, -5.04074544e-02, ...,
          -4.53560054e-02, -2.75521223e-02,  2.94749383e-02],
         [ 1.69459842e-02,  1.12664230e-01, -3.70524786e-02, ...,
           7.63747171e-02,  3.17207687e-02, -7.81109047e-05]]],


       [[[ 2.99917404e-02,  1.81883164e-02, -2.65580826e-02, ...,
           2.03988142e-02, -3.57972062e-03, -1.79916304e-02],
         [ 2.87558641e-02,  2.75459737e-02,  3.07796355e-02, ...,
           9.71049163e-03, -1.37732187e-02,  2.27365158e-02],
         [ 6.30832464e-02, -2.36743945e-03,  5.23713119e-02, ...,
          -4.04086560e-02,  1.23670688e-02,  1.10552488e-02],
         ...,
         [-5.25999069e-03,  3.18314172e-02, -8.30772612e-03, ...,
           9.82594639e-02,  7.15013370e-02,  1.94308590e-02],
         [ 7.35749826e-02, -6.75346926e-02,  2.42356900e-02, ...,
          -4.46864888e-02,  9.83865410e-02, -2.55605225e-02],
         [-2.06436254e-02, -3.60714309e-02, -3.17135490e-02, ...,
          -5.56180663e-02, -3.10927797e-02,  3.49373966e-02]],

        [[-8.58203918e-02,  8.04511271e-03,  1.88890453e-02, ...,
          -4.62281844e-03, -3.45775485e-02, -1.42342644e-02],
         [-3.09884846e-02,  2.71911938e-02, -3.20823751e-02, ...,
          -4.63092960e-02, -1.00554943e-01,  2.08479203e-02],
         [-2.90563777e-02, -9.23420303e-03,  1.11068441e-02, ...,
          -3.75577211e-02, -1.32842353e-02, -1.05111499e-03],
         ...,
         [ 6.52575213e-03, -1.08847991e-02,  1.57508440e-02, ...,
           7.18086436e-02,  6.74380511e-02,  3.97442700e-03],
         [-1.92246288e-02, -1.08380385e-01,  5.68337664e-02, ...,
          -5.17660156e-02, -7.24045560e-02, -1.61947161e-02],
         [ 2.10469794e-02,  1.49159450e-02,  9.96651780e-03, ...,
           1.71517618e-02, -1.45955384e-02, -2.04368699e-02]],

        [[ 1.05545454e-01, -6.43067202e-03, -5.22283763e-02, ...,
           2.20184010e-02, -3.54368202e-02, -4.55567194e-03],
         [ 3.66792642e-02,  3.05647589e-02,  2.86331624e-02, ...,
          -4.34402265e-02, -7.43724704e-02,  2.04243008e-02],
         [-5.72839342e-02,  1.51799535e-02,  2.01758798e-02, ...,
          -1.10219549e-02, -4.42395620e-02, -2.16548946e-02],
         ...,
         [-5.27546853e-02, -2.76491907e-03, -7.09228292e-02, ...,
           5.10665439e-02,  4.46317233e-02,  2.42155255e-03],
         [-6.96887076e-02, -3.90299186e-02, -6.47459105e-02, ...,
          -4.53493521e-02, -1.35673627e-01, -5.43543790e-03],
         [-3.78315896e-02,  1.29687294e-01,  3.43410335e-02, ...,
           2.21703872e-02,  7.27611268e-03, -1.22252377e-02]]],


       [[[-1.07034044e-02,  3.02110072e-02, -9.75950155e-03, ...,
           3.39851081e-02, -3.04286531e-03, -2.21029595e-02],
         [ 2.06773821e-02,  3.09534837e-02,  3.65343727e-02, ...,
           3.83070000e-02,  2.25707497e-02,  3.63038629e-02],
         [ 4.77002114e-02,  2.19387989e-02,  3.75482021e-04, ...,
          -5.61355352e-02,  4.51879911e-02,  5.23325205e-02],
         ...,
         [ 4.35414948e-02,  3.86589617e-02,  3.02241165e-02, ...,
           5.02833053e-02,  9.23416242e-02,  4.53359969e-02],
         [ 6.27809986e-02, -3.28497626e-02,  2.06739902e-02, ...,
          -8.33794847e-02,  9.05912966e-02, -2.88502872e-02],
         [ 2.67628878e-02, -1.04389135e-02, -5.79457823e-03, ...,
          -6.46896735e-02,  2.48624273e-02,  9.12295748e-03]],

        [[-2.25928612e-03,  1.95029434e-02,  9.11553972e-04, ...,
           6.82566687e-02,  1.55040165e-02, -6.94011571e-04],
         [-8.57983157e-02,  3.66968289e-02,  1.39203062e-02, ...,
          -1.53332492e-02, -6.59607574e-02,  2.32451856e-02],
         [ 3.97571959e-02, -1.81357272e-03,  2.29501575e-02, ...,
          -3.37185375e-02,  3.78586203e-02,  3.69038768e-02],
         ...,
         [-2.75253151e-02, -1.37246482e-03,  2.86780316e-02, ...,
           2.66149584e-02,  8.18590447e-02,  3.80173437e-02],
         [-1.18418494e-02, -6.42627329e-02,  4.07354953e-03, ...,
          -7.82073662e-02, -8.39398354e-02,  6.96385745e-03],
         [ 3.25721204e-02,  9.62455850e-03,  4.74545266e-03, ...,
          -5.48500679e-02,  4.70150709e-02,  1.39627354e-02]],

        [[ 3.80699784e-02,  1.17038088e-02, -6.94294348e-02, ...,
           6.44142851e-02, -1.02422871e-02,  2.92095579e-02],
         [ 4.56372984e-02,  3.64250392e-02,  5.59316808e-03, ...,
          -1.99743584e-02, -6.07667454e-02,  1.53663848e-02],
         [ 1.86999943e-02,  5.23327664e-03,  1.02393767e-02, ...,
          -1.19907614e-02,  5.11734821e-02,  4.65449542e-02],
         ...,
         [-9.43560153e-02, -1.36186751e-02,  1.61887370e-02, ...,
           3.50119062e-02,  4.78709117e-02,  2.27767844e-02],
         [-6.45990595e-02,  5.79570979e-03, -2.58968100e-02, ...,
          -5.72699420e-02, -1.31770030e-01,  2.50600018e-02],
         [-5.05115874e-02,  3.81398723e-02,  1.07087931e-02, ...,
          -6.35449588e-02,  8.78541172e-02, -1.36596179e-02]]]],
      dtype=float32), array([1.0123112e+00, 8.5319108e-01, 7.9911941e-01, 6.8678534e-01,
       8.0264032e-01, 5.8829856e-01, 4.4019485e-01, 5.8872652e-01,
       8.1167871e-01, 1.4794137e+00, 8.8729393e-01, 1.0387008e+00,
       9.9047559e-01, 1.0052861e+00, 5.4912978e-01, 7.9379606e-01,
       7.4993771e-01, 1.1246204e+00, 7.4045265e-01, 6.7930239e-01,
       1.6220759e+00, 1.6073298e+00, 1.0260601e+00, 7.4819541e-01,
       1.0304242e+00, 1.2068924e+00, 8.9910948e-01, 8.6805987e-01,
       8.7096876e-01, 8.9188963e-01, 7.9374838e-01, 1.1405059e+00,
       7.8630906e-01, 1.5185753e+00, 1.0653808e+00, 1.0202430e+00,
       8.4332544e-01, 1.5272166e+00, 1.3028929e+00, 1.1546568e+00,
       7.0394421e-01, 1.1241173e+00, 7.4600637e-01, 1.0132308e+00,
       8.7164074e-01, 1.4270530e+00, 8.6588198e-01, 3.0509842e-04,
       1.2895789e+00, 7.2280407e-01, 1.2787640e+00, 9.9584311e-01,
       1.0874172e+00, 1.3168290e+00, 1.1365986e+00, 1.2886031e+00,
       1.0910648e+00, 7.8371131e-01, 9.3057311e-01, 1.0657719e+00,
       6.9963062e-01, 7.0789987e-01, 7.1068156e-01, 8.5865307e-01],
      dtype=float32), array([ 0.03018155,  0.77677023, -0.04438507, -0.17793977, -0.20569089,
        0.15904054, -1.4171087 , -0.01916125,  2.332186  , -1.0669895 ,
       -0.05889054, -0.12302777,  0.01059189,  1.1118177 ,  0.8185361 ,
        0.64109373, -0.21346289,  1.0574777 ,  0.92049235, -0.14680487,
       -0.6345834 , -0.95803964, -0.39232707, -1.8966898 , -0.18070985,
       -0.15096068, -0.11834344, -0.01748161, -0.09788437, -0.57702124,
       -0.17383547,  0.57810473, -0.7831926 , -0.16450405, -0.12177448,
       -0.03707656,  1.0546068 , -2.9753003 , -0.0649365 ,  0.483675  ,
        0.21696688,  0.4449571 , -0.12388625,  0.08951587,  0.11985297,
       -0.9409268 ,  0.00732174, -1.1869699 ,  1.0600598 ,  0.02934297,
       -0.10866008, -0.53369856, -0.2515065 , -0.21984458, -0.09020836,
       -0.5905246 , -0.04012356,  0.21643901,  0.68195075, -0.9771964 ,
       -0.10889269,  0.7149477 ,  2.475403  ,  0.3556183 ], dtype=float32), array([-4.6275797e-01, -4.8615546e+00, -1.4719234e+00,  1.7550863e+00,
        3.1296962e-01, -2.1186252e+00,  2.1021612e+00,  1.2026814e+00,
        4.9697733e+00, -8.3988380e+00,  2.3370542e-01, -2.5987213e+00,
       -3.0046866e+00, -1.1518173e+00,  3.2626462e+00,  2.8987420e+00,
       -1.2150720e+00, -1.1693316e+00, -3.5691371e+00, -1.3483882e+00,
       -4.1170406e+00, -9.2757568e+00, -1.2379984e+00, -7.1314591e-01,
        7.0483011e-01, -1.1614382e+00, -2.4748397e+00, -7.8270566e-01,
       -2.3955011e+00,  4.0759263e+00,  2.4999759e-01, -4.3296714e+00,
        7.1270192e-01, -1.0750374e+00, -1.3607731e+00, -9.6612114e-01,
        1.1264946e+00, -3.4693703e-01, -1.3530340e+00,  5.5324168e+00,
       -3.2005284e+00, -7.4397647e-01, -1.1388924e+00, -5.1701689e-01,
       -4.7357297e-03, -2.6601062e+00, -1.2884133e+00,  2.1974875e-03,
       -7.4991590e-01, -1.6742111e+00, -2.9860627e-02, -3.2697771e+00,
        3.5393426e+00, -1.4350927e+00, -1.1294240e+00, -2.6246331e+00,
        4.5853296e-01,  2.6758119e-01, -2.7070996e-01, -2.8342574e+00,
       -1.9801973e+00,  8.5145445e+00,  1.2766843e+00, -3.3062129e+00],
      dtype=float32), array([5.5948529e+00, 4.8231215e+00, 2.9370935e+00, 1.1581795e+00,
       1.0574349e+00, 1.3029622e+00, 7.1367186e-01, 8.9214629e-01,
       8.9864845e+00, 3.8769031e+00, 2.1671698e+00, 4.3752217e+00,
       2.0659566e+00, 6.3471770e+00, 2.2332654e+00, 7.0322232e+00,
       8.3450437e-01, 9.0310068e+00, 2.9784324e+00, 1.0535499e+00,
       3.9173222e+00, 2.0150921e+00, 5.1903611e-01, 1.4588301e+00,
       1.4974359e+00, 1.9371696e+00, 4.2445421e+00, 3.6414380e+00,
       2.6473608e+00, 2.2800186e+00, 2.0119433e+00, 1.2095665e+01,
       1.1478760e+00, 1.2565637e+01, 3.2483971e+00, 2.5319858e+00,
       6.0431876e+00, 1.3924444e+00, 2.4634907e+00, 1.0314462e+01,
       3.4758620e+00, 5.5993094e+00, 1.1407983e+00, 3.1880884e+00,
       5.7291965e+00, 4.1392503e+00, 2.8976440e+00, 5.8683741e-04,
       1.8595036e+01, 2.1735389e+00, 5.6530952e+00, 2.8734434e+00,
       2.2374389e+00, 2.7051535e+00, 2.0424628e+00, 9.8474693e-01,
       5.6784825e+00, 6.4227700e+00, 6.1388845e+00, 9.4465452e-01,
       1.6461309e+00, 2.7259624e+00, 4.6135712e+00, 4.8657222e+00],
      dtype=float32), array([[[[-8.79349709e-02,  4.35044579e-02, -2.71988899e-01, ...,
           1.82852954e-01, -1.89927176e-01, -7.42371008e-02],
         [ 6.23525446e-03,  2.47502681e-02, -2.35633051e-04, ...,
          -4.97422228e-03,  1.12771150e-02,  6.75672740e-02],
         [ 1.25169963e-01,  1.37270242e-01, -2.89576203e-01, ...,
           6.70391619e-02, -9.25442353e-02, -3.75398546e-02],
         ...,
         [-3.00070532e-02,  1.83929801e-02, -1.20817535e-01, ...,
          -9.94139537e-02, -1.42526194e-01, -1.22460559e-01],
         [-7.06329718e-02,  1.01547549e-02, -1.93930548e-02, ...,
          -1.23376055e-02, -3.93446423e-02, -5.09307943e-02],
         [-2.05061272e-01,  1.13413064e-02,  5.06602764e-01, ...,
           2.46072281e-02, -1.44385278e-01, -6.92202002e-02]]]],
      dtype=float32), array([0.9548611 , 0.65825796, 1.9324507 , 0.7222463 , 0.90647453,
       1.7993988 , 0.47200626, 1.2127875 , 0.8972892 , 1.0561422 ,
       0.6579915 , 1.0757374 , 1.276826  , 1.2329749 , 1.0058435 ,
       0.95211244, 0.8528412 , 1.2887875 , 2.1335287 , 1.8957543 ,
       0.8065251 , 1.866626  , 1.2188035 , 1.1089804 , 0.9479255 ,
       1.1130087 , 1.1488997 , 0.9662311 , 0.87705314, 0.9196793 ,
       0.8584431 , 1.338058  ], dtype=float32), array([-0.1387621 ,  0.10552136,  0.91993654, -0.4832087 , -1.0644664 ,
        0.5992907 , -0.28306445, -0.04339058, -1.9308507 , -0.15805566,
       -0.2506507 , -1.698322  , -0.99413365,  0.8125091 ,  0.10671831,
        0.4466716 ,  0.05093546,  0.04959026,  1.0279807 ,  0.7125921 ,
       -0.25161347,  0.4849512 ,  0.7764158 ,  0.13802196, -1.3220222 ,
        0.04289854,  1.3371816 , -0.33895695,  0.16459544,  0.06486449,
        0.0580776 , -0.1877923 ], dtype=float32), array([-1.2163322 ,  0.37514165, -0.61939114, -0.12886289,  0.5570776 ,
       -1.3132458 ,  0.18902272,  0.14158913,  0.23131026,  0.14957733,
        0.01280514, -0.4803185 , -0.4560162 , -0.12564324,  0.5781454 ,
        0.12158433, -0.6440214 , -0.8092578 , -1.4431839 , -0.9224773 ,
       -0.9300955 , -0.26420447, -2.0083487 , -0.27226973,  0.5187905 ,
        0.3460678 , -0.7729728 , -1.4678084 , -0.02831643,  0.3799242 ,
       -0.676996  , -1.3303441 ], dtype=float32), array([0.38423663, 0.45868182, 1.7581229 , 0.1913658 , 0.48736525,
       0.9069093 , 0.07094487, 1.2550122 , 0.21016976, 0.47931692,
       0.15176232, 0.6913012 , 0.4554315 , 0.6595988 , 0.590466  ,
       0.60018003, 0.5715239 , 1.2537975 , 1.906627  , 1.6155056 ,
       0.358439  , 0.8541728 , 0.7775228 , 0.4537315 , 0.30589378,
       0.9634373 , 0.9170526 , 0.42647675, 1.1412088 , 0.5302197 ,
       0.7027179 , 0.8903473 ], dtype=float32), array([[[[-5.29443957e-02,  1.66536937e-03,  6.89903945e-02, ...,
           2.56756030e-04, -4.79696430e-02, -1.00658789e-01],
         [-2.00718064e-02,  1.44137163e-03,  4.35255580e-02, ...,
           8.79901927e-04,  1.27720712e-02, -7.42979199e-02],
         [ 3.69427470e-03, -2.51903082e-03, -5.30419201e-02, ...,
          -3.21051641e-03,  3.26081924e-02, -8.59957538e-04],
         ...,
         [-5.81197888e-02,  1.88382249e-03, -1.77233312e-02, ...,
           1.41645235e-03, -2.95759831e-02, -4.16181721e-02],
         [-2.46528480e-02,  1.08422502e-03, -1.09127522e-01, ...,
           2.58572912e-03,  1.44595448e-02,  1.25727868e-02],
         [ 5.95361972e-03, -4.35925176e-04,  2.14123577e-02, ...,
           6.03280321e-04,  1.69147812e-02, -8.94676968e-02]],

        [[-2.69086417e-02,  9.86956875e-04, -1.08822010e-01, ...,
          -2.49049714e-04,  4.90633678e-03, -1.03887074e-01],
         [-6.67372048e-02,  1.45710702e-03,  5.18912333e-04, ...,
           2.11592996e-04,  5.78718865e-03,  3.25883478e-02],
         [ 5.60612716e-02, -2.20476463e-03,  1.53436929e-01, ...,
          -1.48054049e-03, -3.45471650e-02,  9.43230744e-03],
         ...,
         [ 1.91939119e-02,  1.65710784e-03, -1.12831146e-01, ...,
           2.12553819e-03, -1.09352339e-02,  2.28049681e-02],
         [-4.23172675e-02,  1.31294609e-03, -9.00038239e-03, ...,
           2.73721362e-03,  2.73873936e-02,  8.43528286e-02],
         [-9.64164287e-02, -4.78719121e-05,  3.63873653e-02, ...,
           9.87395761e-04,  1.73248481e-02, -6.52867630e-02]],

        [[ 1.27300648e-02,  8.83878267e-04, -7.83192962e-02, ...,
           7.06957129e-04, -4.08928320e-02, -5.98012768e-02],
         [-1.92656703e-02,  1.00669859e-03, -1.95552841e-01, ...,
           7.34071305e-04,  4.82637156e-03, -6.55290717e-03],
         [ 1.27795925e-02, -1.83870841e-03,  6.05130717e-02, ...,
           6.18186641e-06, -2.85917241e-02,  6.56259656e-02],
         ...,
         [-2.30371254e-03,  1.39292830e-03, -1.50393680e-01, ...,
           2.46873335e-03,  3.57929580e-02,  2.50992868e-02],
         [ 4.38107066e-02,  1.11814891e-03,  1.16345137e-01, ...,
           3.05934134e-03, -1.14702275e-02, -3.61970924e-02],
         [ 7.92597011e-02,  6.78184006e-05,  2.56285202e-02, ...,
           9.91184846e-04,  1.16141150e-02,  6.70913747e-03]]],


       [[[ 3.98169719e-02,  1.24868704e-03,  6.03620298e-02, ...,
           4.28488856e-04, -4.67453934e-02, -8.03714022e-02],
         [-5.45876548e-02,  4.63555421e-04, -1.05042554e-01, ...,
           1.49092276e-03,  3.88380364e-02, -5.43288589e-02],
         [ 8.81604552e-02, -2.42224312e-03, -8.96891430e-02, ...,
          -2.08150176e-03,  4.79684845e-02,  1.37578296e-02],
         ...,
         [-1.96230505e-03,  1.88071956e-03, -6.59371540e-02, ...,
           1.20345608e-03, -4.83432002e-02, -6.04549535e-02],
         [-2.19675936e-02,  7.47219427e-04,  9.12942067e-02, ...,
           3.64688155e-03, -1.97392609e-03, -9.56447795e-02],
         [-1.12239970e-03, -7.12563124e-05,  1.65290236e-02, ...,
           5.30708232e-04,  1.02113774e-02, -9.05268565e-02]],

        [[ 5.80975190e-02,  3.32874537e-04,  9.14657041e-02, ...,
           2.51697173e-04, -3.85016645e-03,  1.55083954e-01],
         [-1.44254580e-01,  6.38829020e-04,  1.78552240e-01, ...,
           1.34996593e-03, -3.08348387e-02,  2.09569670e-02],
         [-1.95783406e-01, -2.34933686e-03, -1.55069336e-01, ...,
          -1.01767958e-03, -2.76852846e-02, -7.44093731e-02],
         ...,
         [-1.34548014e-02,  1.79305766e-03,  3.46769780e-01, ...,
           2.38294341e-03, -2.70006973e-02, -4.40237895e-02],
         [ 3.56364585e-02,  1.13544078e-03,  1.84798941e-01, ...,
           2.60572950e-03,  1.24010742e-02,  9.24190879e-02],
         [-1.67570338e-01,  2.79107713e-04, -4.40551899e-02, ...,
           1.07095495e-03,  1.11224744e-02, -1.04855008e-01]],

        [[ 2.44782809e-02,  1.97300629e-04,  5.27302921e-02, ...,
           8.07063363e-04, -1.09161541e-01,  2.42392704e-01],
         [ 1.30712331e-04,  4.48720966e-04,  1.21813118e-02, ...,
           1.78812235e-03, -4.97749038e-02, -6.76293522e-02],
         [ 6.08994476e-02, -1.93278422e-03,  2.12376595e-01, ...,
           1.37797743e-03,  1.38504161e-02, -2.15544496e-02],
         ...,
         [ 3.71897638e-01,  1.67807925e-03,  1.53735563e-01, ...,
           1.44778576e-03,  8.07116367e-03,  7.95846283e-02],
         [-1.42405359e-02,  9.31018207e-04,  7.78505802e-02, ...,
           2.98673473e-03,  1.37777422e-02,  4.34969328e-02],
         [-1.20570213e-02,  3.78808298e-04,  3.72609794e-02, ...,
           3.92885006e-04,  2.02244949e-02, -4.71186452e-02]]],


       [[[-8.23738575e-02,  9.02587781e-04, -1.03573598e-01, ...,
           2.28948542e-03, -6.61089318e-03,  2.89877481e-03],
         [-3.68357413e-02,  9.85035673e-04, -1.49183705e-01, ...,
           1.47707772e-03,  1.37380781e-02, -4.55921330e-02],
         [ 7.59465545e-02, -1.69737893e-03,  1.97313447e-02, ...,
          -2.84693763e-03,  2.99116094e-02, -2.22201291e-02],
         ...,
         [-2.59942934e-02,  1.51835498e-03, -9.07362401e-02, ...,
           1.59945106e-03, -7.98277371e-03, -2.35006921e-02],
         [-1.46141322e-02,  8.94867524e-04,  1.28242999e-01, ...,
           2.76543712e-03, -2.18943898e-02, -6.96583092e-02],
         [ 1.23450626e-02, -3.41914623e-04,  6.97946735e-03, ...,
          -2.65264697e-03, -1.59712695e-02,  7.34992931e-03]],

        [[ 1.69746354e-02, -6.94767295e-05, -1.02289222e-01, ...,
           2.05621403e-03, -8.93571973e-03,  9.82973352e-02],
         [-1.10158734e-01,  6.33606978e-04, -3.34539600e-02, ...,
           1.31656730e-03, -4.55946708e-03,  1.94306187e-02],
         [-4.14975405e-01, -1.82567281e-03,  8.09263811e-02, ...,
          -2.61047250e-03, -3.85981873e-02,  6.98371157e-02],
         ...,
         [-1.01493120e-01,  2.12420058e-03, -1.71472758e-01, ...,
           2.20681750e-03, -1.02481702e-02, -5.44375367e-03],
         [ 1.19457565e-01,  1.07547047e-03, -1.17251433e-01, ...,
           1.71678024e-03,  1.10173095e-02, -1.23787411e-01],
         [ 1.30264834e-01, -1.08323475e-04,  6.80784136e-02, ...,
          -2.22845958e-03, -2.11734138e-03, -4.78608012e-02]],

        [[-8.32341164e-02, -4.93571511e-04,  6.54871482e-03, ...,
           2.57045776e-03, -7.16421977e-02, -2.12430544e-02],
         [ 9.30517688e-02,  5.62820293e-04, -1.08669535e-03, ...,
           1.59024412e-03, -2.12738737e-02,  2.24829488e-03],
         [ 2.26566181e-01, -1.39221398e-03, -7.44177075e-03, ...,
          -1.66674284e-03, -1.68758761e-02,  1.44976869e-01],
         ...,
         [ 5.10810129e-02,  1.84404152e-03, -2.09003821e-01, ...,
           1.45042769e-03,  1.15362955e-02,  1.24828778e-02],
         [-3.19278277e-02,  8.22407135e-04, -1.54971108e-01, ...,
           2.56169494e-03, -5.69081120e-03, -1.09238558e-01],
         [ 2.42436305e-03,  1.45383328e-05, -3.35861929e-02, ...,
          -2.37022969e-03, -2.16037016e-02, -4.67981398e-02]]]],
      dtype=float32), array([ 1.76768684e+00,  5.27282944e-03,  2.68320322e+00,  1.27816188e+00,
        2.52921271e+00,  1.47782004e+00,  2.08858967e+00,  1.85298574e+00,
        5.02166629e-01, -5.03985611e-05,  1.32469308e+00,  2.28560925e+00,
       -1.59449584e-04,  2.45758152e+00, -2.34529167e-01, -2.97354609e-01,
        1.92782342e+00,  2.22885585e+00,  3.76111031e-01,  2.57382274e+00,
        1.65068471e+00,  1.65076315e-01,  2.44305158e+00,  1.21886384e+00,
        2.42098025e-03,  2.17231846e+00,  3.64385068e-01,  1.46289443e-04,
        1.68679178e+00,  3.92024100e-01,  5.75184286e-01,  1.82471204e+00,
        2.61396742e+00,  1.69795465e+00,  1.33986163e+00,  1.12708271e+00,
        3.62520456e-01,  6.20298803e-01,  1.21019915e-01,  1.98951888e+00,
        1.63833475e+00,  2.27065110e+00,  2.64792824e+00, -4.25798244e-05,
        2.85680342e+00,  9.23421741e-01,  1.39057493e+00,  2.53208804e+00,
        2.15936375e+00,  2.14579606e+00,  1.02001226e+00,  7.20223844e-01,
        1.21848571e+00, -2.37245415e-03,  1.28493655e+00,  1.87255621e+00,
        2.01754904e+00, -1.39824158e-04,  2.64102840e+00,  1.00587356e+00,
        1.79875886e+00,  9.83395334e-03, -2.78067738e-01,  1.63098562e+00],
      dtype=float32), array([-3.5871306e-01, -3.8920602e-01, -1.7586951e+00,  7.3662680e-01,
       -1.3662501e-01, -3.2420937e-02, -3.4293595e-01,  2.0408998e+00,
       -8.6319822e-01, -4.8003867e-01, -3.9627725e-01,  1.0516723e-03,
       -6.2122333e-01, -1.0224250e-01,  5.1942837e-01, -8.1003100e-01,
        9.7436142e-01,  4.5035219e-01, -4.5818231e-01, -7.8192711e-01,
       -1.1864386e+00, -8.4772056e-01, -7.6039904e-01, -1.1934073e+00,
       -5.4476738e-01, -7.1305120e-01, -7.3441684e-01, -4.5896828e-01,
       -5.5060601e-01, -3.5791621e-01, -6.7402788e-02,  1.3918817e-01,
        1.5192513e-01, -2.5063956e-01, -7.3453748e-01, -1.1333382e+00,
       -6.2583077e-01, -9.5615846e-01, -3.0782109e-01, -5.1178865e-02,
        1.2175667e+00, -6.9761610e-01, -5.9226912e-01, -6.8584168e-01,
        2.1746269e-01, -7.3734134e-01, -4.7737685e-01, -8.9563864e-01,
        3.9529774e-01,  6.0288912e-01, -2.9530266e-01, -6.4544827e-01,
       -3.5966888e-01, -5.2462834e-01, -2.1787068e-01, -7.8361404e-01,
       -3.3044419e-01, -4.6184972e-01,  7.3613638e-01, -1.0625458e+00,
       -4.9655095e-01, -7.1010387e-01, -5.7569438e-01, -9.1319549e-01],
      dtype=float32), array([-5.1111859e-01, -8.5003555e-02, -5.4638070e-01,  1.1496197e+00,
       -2.3513369e-01, -2.2676067e+00, -1.1071874e+00,  5.2705419e-01,
       -2.4035688e-01,  1.7662559e-03,  1.7043063e-01,  2.8273096e-02,
        1.2382462e-03, -6.8621725e-01,  2.9049662e-01, -3.6487621e-01,
       -2.8516108e-01, -4.0852139e-03, -3.1044206e-01, -2.8349012e-01,
        2.7139109e-01, -1.6512212e-01, -7.8074282e-01,  1.3897249e-01,
        2.1631228e-02,  1.7851637e-01, -2.5660244e-01, -1.4437016e-03,
       -6.2936163e-01, -2.9113156e-01, -3.1237351e-02, -7.0801485e-01,
       -5.0049126e-01,  1.0531050e+00, -2.1963052e-01, -1.8081567e+00,
       -4.7751209e-01,  8.2535267e-02,  6.1861239e-02, -5.6360734e-01,
       -1.0218297e+00, -3.1225148e-01, -4.4160205e-01, -3.6371240e-04,
       -1.0493253e+00,  4.5775428e-02, -1.1181440e+00, -9.5520890e-01,
       -3.1256253e-01,  7.6532677e-02, -1.3476021e+00, -1.3414656e+00,
        2.1964914e-01,  2.5283329e-02, -5.7747775e-01, -1.6301624e+00,
        5.7465959e-01, -5.7421079e-05, -1.3932062e+00, -6.6012847e-01,
        1.8584442e-01,  4.2508014e-02,  5.7808012e-01,  8.2877904e-01],
      dtype=float32), array([2.6637223e+00, 3.5073608e-03, 9.2622632e-01, 1.0156527e+00,
       1.7355148e+00, 9.3869275e-01, 2.6383789e+00, 1.9840868e+00,
       2.4324891e-01, 8.4740458e-07, 1.0593532e+00, 1.3725491e+00,
       2.4602828e-06, 1.4763341e+00, 7.0484620e-01, 1.5501972e-01,
       1.1725138e+00, 1.4605124e+00, 2.4582088e-01, 1.7773714e+00,
       7.2770649e-01, 8.9683682e-02, 1.9531326e+00, 6.3870686e-01,
       1.0442558e-03, 1.6224719e+00, 3.1995082e-01, 3.3493645e-06,
       1.0036021e+00, 1.8754789e-01, 2.0580143e-01, 2.1628809e+00,
       1.5853806e+00, 2.6819181e+00, 9.8484319e-01, 5.1979584e-01,
       3.5547313e-01, 1.6685207e-01, 1.3835812e-01, 1.3818504e+00,
       1.0891671e+00, 1.5738626e+00, 1.7750691e+00, 4.1660286e-07,
       2.0543365e+00, 4.5851681e-01, 7.0636660e-01, 1.9281310e+00,
       1.6771326e+00, 1.4921879e+00, 6.2061226e-01, 7.7840990e-01,
       7.1709460e-01, 4.0983438e-04, 1.0106302e+00, 8.6851603e-01,
       2.4778519e+00, 6.9152384e-06, 2.4820654e+00, 2.1079937e-01,
       1.4033560e+00, 4.3673567e-03, 2.8309542e-01, 6.9930130e-01],
      dtype=float32), array([[[[-0.00398846, -0.0187272 ,  0.00535947, ..., -0.00638887,
          -0.06636672, -0.06931257],
         [ 0.08451246,  0.00459116,  0.0241509 , ...,  0.00375906,
           0.00764624,  0.00575276],
         [ 0.02860883, -0.00837371,  0.02313595, ..., -0.00976039,
           0.0036471 ,  0.02991041],
         ...,
         [ 0.05022574,  0.0329018 ,  0.00920822, ...,  0.01146656,
          -0.01146765, -0.024591  ],
         [ 0.02459215,  0.08233191,  0.00752803, ..., -0.02785963,
          -0.02169874, -0.00982588],
         [ 0.00756004,  0.03395088,  0.02351567, ..., -0.01988789,
          -0.0270469 , -0.00480793]],

        [[-0.02387517, -0.06509834,  0.06444321, ..., -0.05804307,
          -0.02963608,  0.03940438],
         [ 0.05284944,  0.00748929,  0.02807955, ..., -0.01035594,
          -0.00283185,  0.01901272],
         [ 0.02172394,  0.01890927,  0.02511539, ..., -0.00359912,
          -0.01862033, -0.04324201],
         ...,
         [ 0.0352207 ,  0.07570847, -0.01151455, ...,  0.00362137,
          -0.00751902,  0.00678561],
         [ 0.02211554,  0.09076022, -0.01431714, ..., -0.01632741,
           0.0036052 ,  0.01701166],
         [ 0.02583438,  0.00131497, -0.01049342, ..., -0.02629025,
          -0.03047726, -0.02077212]],

        [[-0.00413632, -0.04102112, -0.04426761, ..., -0.04919206,
          -0.05824115, -0.10050885],
         [ 0.0403743 ,  0.00575882, -0.03237206, ..., -0.01881287,
           0.02866542,  0.01202139],
         [-0.01639697, -0.02135144,  0.03688094, ..., -0.0103086 ,
          -0.02754544, -0.0138396 ],
         ...,
         [ 0.04573425,  0.05875308, -0.00896289, ...,  0.00039194,
          -0.04544812, -0.00435995],
         [ 0.02503058,  0.0294979 ,  0.01453062, ..., -0.00884713,
          -0.01124019,  0.02934133],
         [-0.02333107, -0.01879383, -0.01912148, ..., -0.02006368,
          -0.0791522 ,  0.00234599]]],


       [[[ 0.00277032,  0.01455165,  0.00063173, ...,  0.0033802 ,
          -0.02196488,  0.00580013],
         [ 0.06429574, -0.02019739,  0.01373676, ...,  0.00694141,
           0.00508274,  0.0063428 ],
         [ 0.02451133,  0.00814852,  0.10824633, ...,  0.01778132,
           0.03808647, -0.01255732],
         ...,
         [ 0.04199677,  0.04750501, -0.00093124, ..., -0.0093923 ,
          -0.03041843, -0.01062923],
         [-0.00032208,  0.10286889, -0.00632864, ..., -0.0149812 ,
          -0.02465618, -0.01460379],
         [-0.00797125,  0.02745274,  0.01415503, ..., -0.02013353,
          -0.04222088, -0.0934855 ]],

        [[-0.0114158 , -0.0392534 ,  0.07539181, ..., -0.07210521,
          -0.1324378 , -0.02664891],
         [-0.0365068 , -0.01955641,  0.03184631, ...,  0.01272937,
           0.0017659 ,  0.01554977],
         [ 0.11002967,  0.06383936,  0.00366908, ..., -0.00676677,
          -0.02000524, -0.06958614],
         ...,
         [-0.02929303,  0.07661337, -0.01205401, ..., -0.02128229,
          -0.00653482, -0.01024554],
         [-0.01291515,  0.12493449, -0.01530253, ..., -0.01969818,
          -0.03228615,  0.04048878],
         [-0.02493044,  0.07664411, -0.05530291, ...,  0.00436489,
           0.00933292, -0.00935285]],

        [[-0.01445706, -0.01613473, -0.06917296, ..., -0.05783853,
          -0.02881466, -0.07316138],
         [-0.09583955,  0.00526082, -0.01888958, ...,  0.00958324,
           0.00197966,  0.00688748],
         [ 0.04724436,  0.04422431, -0.00326937, ..., -0.00189877,
           0.03374089,  0.0085715 ],
         ...,
         [-0.0475971 ,  0.05383649, -0.0219538 , ..., -0.00998774,
          -0.01443554, -0.02263065],
         [-0.0145791 ,  0.03055156,  0.01040249, ...,  0.00231225,
           0.01593925,  0.00853208],
         [-0.07210511,  0.03760529, -0.03637618, ...,  0.02018896,
          -0.02973366,  0.02583189]]],


       [[[ 0.00679577,  0.03978082, -0.00495392, ..., -0.00811268,
          -0.00516391,  0.01619005],
         [ 0.10096777, -0.00047824,  0.01785571, ...,  0.02893489,
          -0.017847  ,  0.00372641],
         [ 0.02221046, -0.00465439,  0.05267994, ..., -0.00660102,
           0.02222462, -0.04267569],
         ...,
         [ 0.04456417, -0.00482567,  0.0186455 , ...,  0.00425035,
          -0.01020367, -0.00102322],
         [-0.00271292,  0.05091499,  0.02002904, ...,  0.01802125,
           0.00962068, -0.00576769],
         [ 0.01274373, -0.01874295,  0.01398015, ..., -0.03407331,
          -0.00247788, -0.04955153]],

        [[ 0.02974705,  0.03554219,  0.0412035 , ..., -0.06462191,
          -0.14893037, -0.11467585],
         [-0.04716995,  0.00203485,  0.03514474, ...,  0.02490294,
           0.01667881, -0.002079  ],
         [ 0.09602477,  0.04143957, -0.00019739, ..., -0.02793784,
           0.00388486, -0.02124602],
         ...,
         [-0.03758505, -0.00695354, -0.01217484, ...,  0.00090719,
          -0.02423378, -0.02513638],
         [-0.02378997,  0.05035638, -0.01199281, ...,  0.03354385,
          -0.01578499,  0.02068256],
         [-0.04144153,  0.01955219, -0.01115128, ..., -0.04981862,
          -0.03072614, -0.01007744]],

        [[ 0.02784429,  0.01186849, -0.07185015, ..., -0.02853608,
           0.0705772 ,  0.0647785 ],
         [-0.11684759,  0.00942474,  0.0080488 , ...,  0.02123661,
          -0.01167258,  0.00408315],
         [ 0.07513837,  0.04686625, -0.00829873, ..., -0.03647003,
           0.03867363,  0.01184482],
         ...,
         [-0.02826103, -0.02677859,  0.00648205, ..., -0.00869114,
          -0.00043817, -0.00563445],
         [-0.03023287, -0.00660477,  0.04640738, ...,  0.03799595,
           0.04064061,  0.00844963],
         [-0.09302846, -0.00457136, -0.04540646, ...,  0.00726571,
           0.00172455,  0.0473127 ]]]], dtype=float32), array([1.4480644 , 0.73520935, 1.1341517 , 0.7123495 , 1.1980077 ,
       1.1522952 , 0.8199791 , 1.2525889 , 0.7219816 , 0.91902274,
       1.1944243 , 1.0785662 , 0.8140239 , 0.9555247 , 1.2847441 ,
       1.2420963 , 0.8375265 , 1.3421725 , 1.1133384 , 1.254063  ,
       1.0024345 , 0.8526488 , 1.079371  , 1.1232643 , 0.8870449 ,
       1.0842975 , 0.8296353 , 1.1112291 , 1.3605506 , 0.8924644 ,
       0.7240633 , 0.6307296 , 0.71252215, 0.93657297, 1.2554989 ,
       1.0434194 , 1.2620165 , 0.7816294 , 0.3781397 , 0.91392106,
       1.0241858 , 1.0466604 , 1.4480042 , 0.70467496, 0.76230115,
       0.922167  , 1.6158392 , 1.1572725 , 1.056409  , 1.4757382 ,
       1.1162056 , 1.1068859 , 1.9118326 , 1.0578313 , 1.0644901 ,
       1.3656346 , 1.1010556 , 1.2430549 , 1.0230353 , 0.6077426 ,
       0.90725267, 1.0119672 , 1.2508702 , 0.54483527, 0.9774527 ,
       0.8567106 , 0.9132129 , 1.1507291 , 1.4245598 , 0.74652594,
       1.1711912 , 1.262165  , 0.6488248 , 1.0095431 , 1.0541779 ,
       0.95806175, 0.53423613, 1.0474923 , 0.64016587, 0.8124596 ,
       0.60010064, 0.9775454 , 1.1051291 , 1.1639568 , 1.1351439 ,
       1.1880914 , 1.0195477 , 0.8676065 , 0.51702857, 0.81664485,
       0.47793123, 1.1792774 , 1.189657  , 1.1449051 , 1.1658131 ,
       0.78571004, 1.243554  , 0.601687  , 1.2258935 , 1.3679059 ,
       1.0355526 , 0.97350484, 0.88564336, 0.8637283 , 1.1392424 ,
       1.2382935 , 1.3445969 , 1.2437295 , 0.85569316, 1.010887  ,
       0.8343549 , 0.8504049 , 1.1294721 , 0.833301  , 1.3385344 ,
       1.4688909 , 0.82809657, 0.66514796, 1.6616418 , 1.500683  ,
       1.0611519 , 0.54191095, 1.0389448 , 0.7755621 , 0.85245293,
       1.0289959 , 1.3002384 , 1.1475556 ], dtype=float32), array([-1.5728787e+00,  1.6889677e+00, -3.8527864e-01,  1.0007151e+00,
       -1.1013829e-03, -3.6982602e-01,  9.9901712e-01, -5.1905000e-01,
        7.3938906e-01, -3.9387786e-01,  2.4766765e+00,  4.5274353e-01,
        1.5217748e+00, -8.4754926e-01,  9.2359829e-01, -2.0155093e-01,
        2.5143564e+00, -1.9503362e-01, -2.5466442e-01, -4.2795815e-02,
        5.1777267e-01,  1.1496707e+00, -4.0124416e-01, -4.4947002e-02,
        1.6318392e-02, -2.6644629e-01, -6.2003722e-03, -1.7849202e-01,
       -4.1090623e-01, -2.7650058e-01,  1.6455739e+00, -1.1731948e+00,
        6.9158667e-01,  1.4364563e+00,  1.3920397e-01, -1.5760671e-01,
       -1.4073185e+00,  1.3401397e-01, -7.9452753e-01,  2.1239505e+00,
       -9.9143714e-02, -1.8001342e-01, -1.6025984e+00,  1.7596525e+00,
       -1.6823633e-02, -8.5489236e-02,  1.3582481e+00,  3.9214999e-03,
        2.0693858e-01, -4.0865329e-01, -2.1542835e-01, -1.7054661e-01,
       -3.3627970e+00, -2.3713246e-01,  1.1648850e+00, -3.7506005e-01,
       -3.7342751e-01, -2.7969953e-01, -1.2228588e-01, -6.9619846e-01,
       -8.9946665e-02, -2.8988364e-01,  1.2687291e+00,  1.3234414e+00,
        1.7692955e+00, -3.0977124e-01,  1.8656970e+00, -3.2786551e-01,
       -3.0380177e-01, -1.2931721e-01, -9.9092983e-02,  1.2843767e-01,
        1.3234395e+00, -1.5115012e-01, -8.3754495e-02, -2.2791408e-01,
       -1.0843381e+00, -1.8118867e-01, -1.7229584e-01, -2.5037172e-01,
       -1.4155072e-01, -2.0851742e-01,  1.2214723e-02, -2.9305023e-01,
        4.4465089e-01, -4.3440023e-01,  1.1258938e-01, -2.4662558e-02,
       -8.4989357e-01,  1.6072259e+00, -1.0675073e+00, -1.4686625e-03,
       -2.5483060e-01, -2.2958265e-01, -5.4144222e-01,  7.2549266e-01,
        3.6583441e-01, -1.0635655e+00, -2.3763371e-01, -2.3774241e-01,
        5.0843880e-02,  2.7478224e-01, -6.4962715e-02,  1.7043135e+00,
       -3.1524181e-01, -2.6611128e-01, -3.4768796e-01,  4.4045466e-01,
       -2.5838676e-01, -3.1592467e-01,  1.8696141e+00,  1.2378737e+00,
       -3.6297792e-01,  4.5716387e-01, -6.7731470e-02, -3.6726460e-01,
       -4.9640536e-01,  1.5425696e+00, -6.3872486e-01,  3.5978664e-02,
       -2.8110409e-01, -5.0367314e-01, -1.9398591e-01,  3.8345462e-01,
       -2.5368977e-02,  5.6077596e-02, -4.6817207e-01, -2.2592799e-01],
      dtype=float32), array([-1.7392654 ,  1.632584  , -0.9169786 , -0.7099361 ,  0.8436175 ,
       -2.415997  ,  2.8657491 , -0.17105664, -0.25859267, -1.2370491 ,
        7.302524  , -2.3771377 , -3.4384947 ,  0.32791555,  2.3487842 ,
       -1.477624  , -2.0586915 , -0.7345241 ,  0.1334603 , -0.7600763 ,
       -1.5219823 ,  1.5489758 , -1.6049895 , -0.89771837,  0.12606825,
       -0.1521435 ,  0.638439  , -0.9575355 , -0.32888675, -1.442416  ,
       -3.1811705 , -1.7029921 , -3.3899076 , -4.332465  ,  0.16057888,
       -1.4273974 ,  0.06810328, -2.9576707 , -1.2448881 , -1.6414458 ,
        0.26923347,  1.0037136 , -1.1806512 , -4.396975  , -2.1799896 ,
       -1.7431715 ,  2.012638  , -1.1489888 ,  3.174569  ,  0.07306874,
        0.05806794, -0.6227129 , -1.8120902 , -1.9029118 , -3.7927837 ,
       -1.923361  , -0.7432986 , -1.1612471 , -0.34620053, -1.0025734 ,
       -1.337409  , -0.64263624, -0.31750053,  2.20935   , -2.7968962 ,
       -1.6604066 , -4.3131676 ,  0.47570917, -1.3380371 ,  0.6317489 ,
       -0.7271065 , -0.6066535 ,  3.8057415 , -0.51541924, -0.20138785,
       -1.1415732 , -0.5716567 , -1.6864796 , -2.540499  , -0.479381  ,
        1.6760044 , -0.5442251 , -0.30962572, -1.6823937 ,  0.6708522 ,
       -2.0066664 , -1.2165563 ,  0.7147699 , -1.0387214 , -5.2283487 ,
       -0.6360952 , -0.7908953 , -2.662344  , -0.77565163,  1.4112166 ,
        0.07956444, -3.1672108 , -0.7155029 , -0.5483937 , -1.3328887 ,
       -2.0506325 , -0.32097498, -0.68369687, -4.2977595 , -1.0778053 ,
       -2.3257127 , -3.714347  , -2.1020703 , -0.767941  ,  4.207812  ,
       -2.841776  ,  0.1533382 , -1.4484979 , -1.4778228 , -1.2254822 ,
       -0.8056736 ,  0.43937862, -3.5359564 ,  0.55732036, -1.1536742 ,
       -0.58584636,  2.0987098 ,  0.21639423,  4.4497495 , -0.85674745,
       -2.794529  , -0.97155744, -0.7149335 ], dtype=float32), array([ 1.3975425,  6.1726503,  3.6398544,  2.88033  ,  6.158041 ,
        3.4108646,  4.513117 ,  3.2890556,  3.6955447,  2.6647348,
       12.74595  ,  5.694648 ,  5.934574 ,  2.2036319, 13.892967 ,
        6.6467648,  4.4463325,  6.065944 ,  3.3720891,  4.7979674,
        6.301248 ,  4.0837727,  3.7775578,  3.6394143,  3.74827  ,
        2.595429 ,  3.5111575,  5.855652 ,  5.1999197,  2.8029685,
        7.0065627,  1.5575539,  3.5206466,  8.808496 ,  5.6894736,
        3.2010288,  2.228333 ,  3.179676 ,  0.6573914,  5.5367355,
        6.641028 ,  4.3738384,  2.5655198,  6.011073 ,  3.3253443,
        3.5446248, 18.219196 ,  3.7516356, 28.46095  ,  6.1249056,
        4.446115 ,  3.766727 ,  2.0316503,  4.772427 ,  6.078778 ,
        4.793713 ,  3.4308164,  5.477347 ,  4.0954795,  1.0691384,
        2.2818158,  2.5607843, 10.268881 ,  3.3025715,  6.0299244,
        6.3359375,  4.4493146,  2.9067314,  4.14571  ,  2.5784109,
        4.388975 ,  6.9789805,  6.9350963,  3.3902454,  4.108374 ,
        3.013817 ,  1.0108736,  3.3569012,  3.5598197,  2.0127344,
        1.6703627,  4.5497026,  8.135771 ,  3.8509314,  5.7013364,
        3.6416893,  5.1831403,  4.8039393,  1.1516502,  8.681886 ,
        0.8551285,  5.6066484,  6.3858786,  3.344243 ,  4.759545 ,
        9.413209 ,  8.877458 ,  1.2007335,  6.16068  ,  7.5116343,
        5.716391 ,  5.8929715,  3.161488 ,  6.191517 ,  3.647259 ,
        4.424678 ,  4.865135 ,  4.690589 ,  2.4517686,  3.611195 ,
        4.938184 ,  3.0152016,  3.1486495,  3.2709703,  3.9121196,
        5.9765086,  2.763699 ,  2.65223  ,  8.235534 ,  7.3015504,
        3.4193828,  1.5618576,  2.7894926,  4.9053993,  3.4677153,
        3.7098672,  4.1317477,  4.0433903], dtype=float32), array([[[[ 0.01308226, -0.02958811,  0.01163512, ...,  0.07971761,
           0.03914461, -0.00590963],
         [-0.04532298,  0.06804615,  0.08572889, ...,  0.16919267,
          -0.0465316 , -0.01102091],
         [-0.00579241, -0.06941859,  0.04297085, ...,  0.03831621,
           0.02741308,  0.01002033],
         ...,
         [-0.03023365, -0.0202551 ,  0.03622403, ...,  0.18813498,
          -0.05691189, -0.01074958],
         [-0.01099231,  0.0211986 ,  0.01810815, ...,  0.03448079,
           0.00255246, -0.00559175],
         [ 0.0220663 , -0.01981628,  0.1273012 , ...,  0.037012  ,
          -0.00144757,  0.00784892]]]], dtype=float32), array([0.7160605 , 0.9431407 , 0.9102933 , 0.7673282 , 0.8206226 ,
       0.85156274, 0.73104924, 0.2322126 , 0.6597955 , 0.9315974 ,
       1.0571911 , 0.8407175 , 0.65814936, 1.0103126 , 0.65933436,
       0.83967406, 0.9115978 , 0.32314488, 0.6225196 , 0.85121983,
       0.6561916 , 0.6249284 , 1.0641971 , 0.7707266 , 0.73806274,
       0.8699244 , 0.9075593 , 0.73752826, 0.31198427, 1.0051202 ,
       0.6956045 , 0.7982454 , 0.7823306 , 0.7295311 , 0.97252554,
       0.7670723 , 0.3605755 , 0.3845155 , 0.6643761 , 0.9393528 ,
       0.7218894 , 0.5692448 , 0.61040735, 0.5946804 , 0.7312169 ,
       0.34725958, 0.87493414, 0.6443895 , 0.3186497 , 0.2544991 ,
       0.63939357, 0.8773982 , 0.8238888 , 0.87453574, 0.8845494 ,
       0.9383536 , 0.71478516, 0.3053484 , 0.8740222 , 0.57141435,
       0.90237707, 0.53425837, 0.6214467 , 0.04506519], dtype=float32), array([-0.77768743, -0.54146343, -1.5781459 , -0.22417337, -0.12246545,
       -0.88096654, -0.08602203,  1.3183439 , -0.36430576, -1.1058944 ,
       -2.4839942 , -0.5350721 , -0.2625129 , -0.49609786, -0.6320002 ,
       -0.79492104, -0.9304768 ,  1.5807931 , -0.6084719 , -0.64838624,
       -0.4470264 ,  0.02448683, -0.64730453, -0.49846458, -0.7013408 ,
       -0.5588862 , -0.6737785 , -0.3484    ,  1.4809366 , -0.61375713,
       -0.459565  , -1.0081552 , -0.61595416, -0.8269019 , -0.92023754,
       -0.4362711 ,  1.9524522 ,  0.63952625, -0.8058788 , -0.8922638 ,
       -0.5890555 , -0.5041375 , -0.5801819 , -0.56458086, -0.32872927,
        1.7644745 , -0.595987  , -0.259737  ,  1.6436334 ,  1.3982241 ,
       -0.01423979, -0.62053233, -0.43703783, -0.6372993 , -1.2063781 ,
       -0.207568  , -0.38135827,  1.6994499 , -0.59588796, -0.06567466,
       -1.2009279 ,  0.65735084, -0.34210393,  0.5217242 ], dtype=float32), array([-2.98912883e-01, -1.12502885e+00,  6.86170220e-01, -4.73308980e-01,
       -1.35438216e+00, -3.82292211e-01,  7.98221707e-01,  1.69312656e-02,
       -4.80903447e-01,  7.33558893e-01,  7.19347835e-01,  1.96634710e-01,
       -3.45901310e-01, -8.13551009e-01, -3.98939580e-01,  2.41234452e-01,
       -5.21231413e-01, -7.96621442e-01, -4.53679502e-01, -9.54752207e-01,
        1.25946128e+00,  9.28901285e-02,  8.49611033e-03,  8.17389846e-01,
       -1.02907372e+00,  3.41957472e-02, -6.82317376e-01, -2.22149044e-01,
        7.75717665e-04, -2.81832069e-01, -2.58166671e-01,  9.30065274e-01,
       -1.08787015e-01,  5.87398171e-01, -5.74261367e-01,  2.29149275e-02,
       -4.45158392e-01, -1.53653967e+00, -3.94299537e-01, -6.45759046e-01,
       -5.86865723e-01, -5.39421499e-01, -7.75921464e-01,  3.93890738e-01,
        2.89180558e-02,  5.46634495e-02,  8.10054123e-01, -5.14813781e-01,
        3.94915491e-02,  2.26516519e-02, -4.56018269e-01, -6.62151948e-02,
       -6.20195568e-02,  2.81804092e-02,  1.13274717e+00,  7.69012272e-01,
       -2.20332235e-01, -3.55880111e-01,  9.38358486e-01, -1.24475539e-01,
       -6.55350029e-01, -7.53042817e-01,  8.76264036e-01, -2.23013714e-01],
      dtype=float32), array([0.24276362, 0.5365889 , 0.20774993, 0.2340566 , 0.4592389 ,
       0.390416  , 0.31741995, 0.44486076, 0.20142795, 0.28041178,
       0.1705318 , 0.5040467 , 0.35211754, 0.65641946, 0.18054748,
       0.29127166, 0.34258318, 0.16109858, 0.21542849, 0.32567123,
       0.37185538, 0.36608532, 0.60393703, 0.31284255, 0.2170066 ,
       0.18516487, 0.34931105, 0.23532039, 0.6720978 , 0.36167425,
       0.2025605 , 0.251596  , 0.40204307, 0.72107387, 0.16085888,
       0.23670416, 0.8755173 , 0.59085274, 0.16624275, 0.32079548,
       0.268199  , 0.2686779 , 0.23786168, 0.1961572 , 0.16965169,
       0.8617892 , 0.27166897, 0.43856147, 0.73844355, 0.51034784,
       0.27215156, 0.68885493, 0.28794757, 0.33741224, 0.4681927 ,
       0.5497359 , 0.34572893, 0.6483052 , 0.2431751 , 0.41366532,
       0.14370988, 1.3858353 , 0.6418099 , 0.06351256], dtype=float32), array([[[[-5.97660255e-05, -7.17665721e-03, -2.96317935e-02, ...,
          -2.78735388e-05,  1.15872175e-02,  2.64014513e-03],
         [ 8.73421013e-05,  8.34947545e-03,  2.86827702e-02, ...,
          -4.13030284e-05, -1.39041850e-02,  2.87882634e-03],
         [ 1.31484348e-05,  5.39971050e-03,  1.06777567e-02, ...,
           9.93004596e-06,  4.40329127e-03,  2.25955667e-03],
         ...,
         [-1.63097371e-04,  2.57688649e-02,  2.89998427e-02, ...,
          -1.12930675e-05,  9.47738811e-03,  1.08782193e-02],
         [ 2.93026242e-04, -8.06899667e-02,  5.33194235e-03, ...,
          -3.65932137e-05,  3.87085893e-04,  9.08943533e-04],
         [ 1.22946785e-05, -1.77313276e-02, -3.96725116e-03, ...,
          -7.23109395e-07, -3.39731923e-03,  5.32559701e-04]],

        [[ 4.80950584e-05, -1.66050401e-02,  3.54882888e-02, ...,
           3.38422933e-06,  3.75911966e-02,  1.23447168e-03],
         [ 3.29005775e-06,  6.28519803e-02, -9.11841318e-02, ...,
          -5.05281969e-05, -2.20926311e-02,  2.87844497e-03],
         [ 5.68111500e-05, -4.52986360e-03, -4.22212407e-02, ...,
           4.57525421e-05, -2.37276554e-02, -7.98741094e-05],
         ...,
         [-3.51114249e-05,  8.38656276e-02,  5.79927675e-03, ...,
          -2.59348440e-06,  2.39679497e-02,  1.10761905e-02],
         [ 9.96956005e-05, -1.39266998e-01, -1.57926958e-02, ...,
          -5.13082305e-05, -2.44440380e-02, -5.56454819e-04],
         [ 2.22163162e-05, -1.96413752e-02, -3.42164794e-03, ...,
           8.97669179e-06, -2.48855539e-03,  3.18373524e-04]],

        [[ 1.94167696e-05,  2.79493220e-02, -2.22377647e-02, ...,
          -1.62601809e-05, -1.97968073e-03, -6.77123899e-04],
         [-7.48907187e-05,  6.90853084e-03,  2.88808974e-03, ...,
          -9.45408174e-05, -1.78720057e-02, -1.34646706e-03],
         [ 8.45820687e-05, -2.77792774e-02, -1.54838972e-02, ...,
           2.72931939e-05,  4.04853234e-03,  2.65889103e-04],
         ...,
         [-1.62007374e-04,  5.03380131e-03, -2.03073528e-02, ...,
           2.58178102e-06,  1.16005810e-02,  6.91474881e-03],
         [ 1.25907958e-04, -3.66628356e-02,  2.11435389e-02, ...,
          -4.90902894e-05, -1.16618797e-02,  3.08736227e-03],
         [ 1.42084136e-05, -1.33260405e-02, -8.00142530e-03, ...,
           1.58715602e-06,  8.07153340e-03, -5.71752898e-04]]],


       [[[ 3.18239690e-05,  1.63684618e-02, -4.36271243e-02, ...,
          -6.13832526e-06, -7.23236892e-03, -1.31193851e-03],
         [ 7.79205366e-05, -8.04175436e-02,  1.09872166e-02, ...,
          -6.35773904e-05,  1.48114771e-01,  7.10275199e-04],
         [ 2.98066079e-05, -3.19984071e-02,  2.91166492e-02, ...,
          -3.47259192e-05,  1.09730177e-02,  3.52579146e-03],
         ...,
         [-6.50814081e-06, -1.48445768e-02, -2.01684162e-02, ...,
           4.35925676e-06,  3.00798416e-02,  1.43181169e-02],
         [ 1.18677912e-04, -6.47961944e-02,  3.09145041e-02, ...,
          -3.71706010e-05,  2.30805594e-02, -3.54863238e-03],
         [ 9.81829726e-06, -9.97599401e-03,  1.33139058e-03, ...,
          -1.04211240e-05,  1.63309369e-03,  7.01012104e-05]],

        [[ 9.55950745e-05, -5.41023053e-02,  2.13675741e-02, ...,
          -1.04885748e-05,  6.67769313e-02, -4.29379497e-07],
         [-7.86564633e-05,  1.20563610e-02, -6.76844865e-02, ...,
          -8.17756882e-05, -1.81983076e-02,  7.19539297e-04],
         [ 1.36816903e-04,  2.62632724e-02, -6.01961352e-02, ...,
           4.99948874e-05, -1.60655398e-02,  3.27151339e-03],
         ...,
         [ 5.11935541e-05, -3.00900619e-02, -1.26934545e-02, ...,
           2.34821873e-05, -2.68810708e-02,  1.29725290e-02],
         [ 7.60936091e-05, -3.90441008e-02, -3.64228189e-02, ...,
          -7.46407532e-05, -2.11074706e-02, -3.24919564e-03],
         [ 1.17299123e-05,  8.04191176e-03, -4.52734856e-03, ...,
          -2.03286777e-06,  1.35143520e-03, -2.49464356e-04]],

        [[ 1.37377676e-04,  6.95231277e-03, -3.27976793e-02, ...,
          -3.78508958e-05, -1.86591428e-02,  6.41357678e-04],
         [-1.05416002e-04, -3.53421457e-02,  2.91280751e-03, ...,
          -8.97362843e-05,  1.34009477e-02,  1.82823977e-03],
         [ 3.58335274e-05,  1.56656001e-02, -2.67737098e-02, ...,
           2.82193250e-05,  1.29200816e-02,  5.72281424e-03],
         ...,
         [-5.21443289e-05, -5.06970249e-02, -2.67720837e-02, ...,
           1.89914590e-05,  1.81638487e-02,  1.01058688e-02],
         [ 2.14537595e-05, -2.52458602e-02,  3.11159473e-02, ...,
          -5.51076373e-05, -1.71975140e-02,  3.78930243e-04],
         [ 1.07892611e-05, -2.65881652e-03, -1.49353233e-03, ...,
          -3.15679017e-06,  1.99053739e-03, -8.94397614e-04]]],


       [[[-6.78497890e-05,  6.25610119e-03, -2.68002488e-02, ...,
           1.33174926e-05,  7.61605508e-04,  2.18272279e-03],
         [ 1.27432926e-04, -9.16883796e-02,  6.17428832e-02, ...,
          -6.57144992e-05,  2.99051870e-03,  2.49850657e-03],
         [ 1.22122452e-04,  1.59145258e-02, -9.26630292e-03, ...,
          -1.40066476e-07,  3.52625223e-03,  2.04156688e-03],
         ...,
         [-1.60047101e-04, -4.81164642e-02,  3.10353115e-02, ...,
           4.28439198e-05, -2.46386603e-03,  1.44000892e-02],
         [ 2.48231983e-04,  6.59259930e-02,  7.40890112e-03, ...,
          -5.80203559e-05,  2.95988098e-02, -1.79677317e-03],
         [ 1.12018834e-05,  2.32677732e-04,  7.33874505e-03, ...,
          -1.63759796e-05,  3.33870808e-03, -7.65128469e-04]],

        [[-1.29469163e-05, -1.10341320e-02, -1.29934419e-02, ...,
          -1.09196271e-05, -4.31619324e-02,  1.19220582e-03],
         [ 4.92618929e-05, -8.16077888e-02, -3.27173658e-02, ...,
          -7.13650807e-05, -1.94515921e-02,  2.06777710e-03],
         [ 2.09910024e-04, -4.92152013e-02, -2.27920972e-02, ...,
           2.73972455e-05, -5.46102002e-02,  1.49581768e-03],
         ...,
         [-1.11638270e-04, -1.45104334e-01,  1.40771931e-02, ...,
           4.93665066e-05, -3.04830819e-02,  1.15865013e-02],
         [ 4.10724519e-04,  2.15800196e-01, -1.89379975e-02, ...,
          -9.10646049e-05, -7.30267679e-03, -6.45833032e-04],
         [ 6.03519766e-06,  3.33988182e-02,  4.81634820e-03, ...,
          -2.61065179e-06, -3.68067413e-03, -1.44529261e-03]],

        [[ 7.06034189e-05,  1.72083604e-03,  2.65880842e-02, ...,
          -3.83692313e-05,  1.93100777e-02,  1.75244710e-03],
         [-5.14827443e-05, -4.90100235e-02, -4.46545929e-02, ...,
          -8.48348500e-05,  4.13451977e-02,  2.61326111e-03],
         [ 1.26820232e-04,  1.25763472e-02, -3.93013582e-02, ...,
           1.87534824e-05,  2.36165500e-03,  3.75869218e-03],
         ...,
         [-1.19623503e-04, -8.16402212e-02, -1.82332061e-02, ...,
           4.96984976e-05,  2.83887908e-02,  9.26678628e-03],
         [ 3.09053634e-04,  1.22257330e-01,  4.25494313e-02, ...,
          -6.21084109e-05, -9.18167550e-03,  2.84599676e-03],
         [ 1.33444692e-05, -6.72383653e-03,  7.92077277e-03, ...,
          -5.72616273e-06,  8.35304032e-04, -1.83825917e-03]]]],
      dtype=float32), array([-5.28335804e-04,  8.90789449e-01,  6.08459294e-01,  4.85883474e-01,
        3.59396219e-01,  6.91189945e-01,  3.78440648e-01,  8.29290032e-01,
       -5.96080303e-01,  6.46262169e-01,  6.56475484e-01,  8.98257911e-01,
        5.86502075e-01,  4.75344062e-01,  9.74718451e-01, -3.86024243e-04,
        7.33655214e-01,  3.64701003e-01,  3.31577778e-01,  2.39492267e-01,
        9.21658278e-01,  3.47053468e-01,  5.70660591e-01, -2.80317245e-03,
        5.83196759e-01, -9.23106039e-04,  1.12151957e+00,  5.35583973e-01,
        7.07950056e-01,  5.62026560e-01,  1.00607288e+00,  1.41471398e+00,
        1.03955817e+00,  7.29202867e-01,  4.41808432e-01,  1.61480963e-01,
        4.64410394e-01,  5.70178509e-01,  6.82668746e-01,  5.46114743e-01,
        2.55708307e-01,  1.28185615e-01,  4.22782481e-01,  1.00725818e+00,
        1.12819564e+00, -3.73654207e-03,  5.30565977e-01,  4.15258914e-01,
        1.67977601e-01,  2.33657053e-03,  2.75606900e-01,  5.82689285e-01,
        4.05391484e-01,  8.17007661e-01, -3.93965840e-01,  6.45079076e-01,
        5.69349647e-01,  1.85031880e-04,  5.88776290e-01,  1.06271553e+00,
        6.89680517e-01,  3.23550791e-01,  9.26928818e-01,  8.66837442e-01,
        1.08038211e+00,  6.61949873e-01,  3.51108432e-01,  5.44477046e-01,
        4.78716820e-01, -2.93521789e-05,  2.15535532e-04,  3.55076522e-01,
        8.67444694e-01,  1.64183110e-01,  3.42377025e-04,  1.14782095e+00,
        1.20493722e+00,  3.21839690e-01,  9.00380015e-01,  9.31351185e-01,
        1.35893035e+00,  1.06747910e-04,  4.46454495e-01,  3.39819402e-01,
        5.20291030e-01,  6.48889124e-01,  6.66020751e-01,  6.03412449e-01,
        6.73727453e-01,  1.25556958e+00,  9.66237426e-01,  4.94804859e-01,
        2.08906760e-03,  3.54510128e-01,  7.53233373e-01,  7.87335634e-01,
        8.31256390e-01,  7.56451011e-01,  4.37959254e-01,  1.35914102e-04,
        4.97056842e-01,  1.05985558e+00,  4.63159710e-01,  8.65755498e-01,
        1.00644276e-01,  5.36150217e-01,  8.22546422e-01,  3.27501744e-01,
        9.90382671e-01,  1.36549807e+00,  5.01069486e-01,  5.87569058e-01,
        2.14139745e-02,  4.24528301e-01,  1.20601348e-04,  6.79438233e-01,
        9.74820971e-01, -4.74269211e-01,  4.94908420e-07,  2.31986865e-03,
        3.09892774e-01,  1.12256944e+00,  2.90149391e-01,  6.55221045e-01,
        6.46931708e-01,  9.99100012e-05,  5.40659189e-01,  9.05626267e-02],
      dtype=float32), array([-0.43409252,  0.31792068, -0.649091  , -0.9240983 , -0.883774  ,
       -0.68486613, -0.9866969 , -0.5069774 , -0.62032264, -0.46748558,
        1.4573419 , -0.28179473,  1.0171415 , -0.46507317, -0.0865218 ,
       -0.73055124, -2.069113  , -0.4834942 , -0.64771134, -0.802662  ,
       -0.47956014, -0.6733549 , -0.48203632, -0.42614144, -0.58405364,
       -0.49313614,  0.20017879, -0.5627768 , -0.35014722, -0.6076581 ,
        1.0908074 , -1.7082185 ,  0.5241115 ,  2.003283  , -0.6414406 ,
       -0.69397944, -0.69584537, -0.6442865 ,  0.39647174,  0.712137  ,
       -0.6897906 , -0.48990053, -0.48103055,  0.72295785, -0.12133662,
       -0.39883077, -0.5244071 , -0.6220275 ,  0.16376816, -0.6341375 ,
       -0.63687974, -0.31191733, -0.6459774 , -0.35282385, -0.8919903 ,
       -0.38732812, -0.47017193, -0.42588744, -0.31241432,  0.32305104,
       -0.7293475 , -0.5478074 , -0.11228388,  0.28762493,  1.0851185 ,
       -0.28884557, -0.02038777, -0.44642124, -0.43174717, -0.49799636,
       -0.49509358, -0.8039733 ,  0.3592631 , -0.6305898 , -0.51387846,
       -0.42707032,  0.31540564, -0.47910246,  0.02215894, -0.01667494,
       -0.06793165, -0.67218083, -0.54496336, -0.5974158 , -0.48412475,
       -0.33741966, -0.4678263 , -0.43632776,  0.41099992,  1.3191226 ,
        0.48159158, -0.48196033, -0.51753587, -0.52126634, -0.39959204,
       -1.0732439 , -0.10026735,  0.39794603, -0.45039248, -0.6382895 ,
       -0.6685346 , -0.5534342 , -0.43538988, -0.35004818, -0.5793132 ,
       -0.51571906, -0.44695848, -0.5668273 , -0.03113495, -0.17188355,
       -0.0074114 , -0.6698734 , -0.57186395, -0.01593412, -0.5304747 ,
       -0.7376427 ,  0.5696864 , -0.7892143 , -0.38897485, -0.59482443,
       -0.61422354, -0.13531642, -0.6876078 ,  1.2723253 ,  0.2898926 ,
       -0.46594   , -0.45656404, -0.6522359 ], dtype=float32), array([-6.3435328e-03, -1.7086402e+00, -1.8114662e-01, -1.3360608e-01,
       -2.0712411e-02,  4.9646494e-01, -3.9912868e-01, -4.7165540e-01,
        2.1960756e-01, -5.1242983e-01,  6.6131437e-01,  8.4743071e-01,
       -4.6407169e-01,  7.9519141e-01,  1.3192978e+00, -1.8018067e-03,
        4.0400073e-01,  4.2085099e-01,  6.6886216e-01, -6.3086942e-02,
        1.5715580e+00, -1.4669615e-01, -8.0685616e-02, -8.9260358e-03,
        1.4523249e+00,  7.3666694e-03,  1.1287520e+00,  3.1116524e-01,
        9.4923788e-01,  1.6944475e+00,  4.3556258e-01, -1.0316760e+01,
       -4.1751301e-01, -8.3278328e-02,  8.0282527e-01,  2.3521671e-01,
        2.7539766e-01,  9.1220289e-01, -1.5443082e+00,  1.1354500e+00,
       -9.0665840e-02,  6.2518597e-02, -5.9649926e-01,  1.4656742e+00,
        9.4052821e-01,  7.5235823e-03,  2.8662473e-01,  7.6528692e-01,
       -2.3169386e-01, -8.7766796e-03,  6.4026064e-01,  5.4310191e-01,
       -7.4983969e-02,  3.0886021e-01, -1.9181539e-01, -1.6653714e-01,
        2.3161042e-01, -1.9292893e-03,  1.0718148e+00, -3.1597018e-01,
       -1.2327018e-01,  3.6644539e-01,  1.0857006e+00, -3.9650616e-03,
        8.2137448e-01,  1.7704988e+00,  5.1884693e-01,  9.2192727e-01,
       -5.7269055e-01, -2.3280777e-04, -1.8636490e-05, -6.7839903e-01,
       -2.7639741e-01,  9.1658950e-02,  8.9904033e-03,  1.9725947e+00,
        2.5273013e-01, -6.0108495e-01,  6.1974633e-02,  3.3422759e-01,
        1.1625133e+00,  9.3299226e-04,  1.1256834e-01,  9.3468469e-01,
        4.0533677e-01,  8.0745615e-02,  4.1911027e-01, -5.9402883e-01,
       -2.9832813e-01, -3.3356687e-01,  8.6900938e-01,  7.9513349e-02,
        4.6352930e-02, -1.4702308e-01, -2.7938551e-01, -2.9974306e-01,
        2.9693630e-01,  2.4555774e-01,  5.9669137e-01,  1.5320521e-03,
        4.3759310e-01,  4.5613113e-01,  3.6612681e-01,  3.4318454e+00,
        6.3101724e-02,  8.0052376e-01,  6.8130064e-01,  2.1734957e-01,
       -1.0327977e-01,  3.9244094e-01,  2.9810071e-01, -2.2959636e-01,
        6.3851126e-02,  7.7182394e-01, -7.0352672e-04,  1.1859673e+00,
       -2.2342852e-01, -5.5238963e-03, -5.1992383e-06, -4.2917158e-02,
        5.4296392e-01,  8.3304065e-01,  1.0466659e-01,  3.3324000e-01,
        1.4107612e+00,  1.9217384e-04,  7.5054079e-01,  4.4624515e-02],
      dtype=float32), array([1.7677716e-05, 8.3546656e-01, 1.9654471e-01, 1.4289492e-01,
       1.0647032e-01, 2.1286836e-01, 1.2610292e-01, 2.5997970e-01,
       3.1142461e-01, 4.4392991e-01, 8.8814217e-01, 6.2973934e-01,
       5.3727978e-01, 1.4684096e-01, 8.3400255e-01, 3.0328336e-05,
       2.0742509e-01, 1.1912558e-01, 1.1154248e-01, 9.2603639e-02,
       4.8510104e-01, 1.6797395e-01, 1.3012888e-01, 3.9592251e-04,
       2.7008626e-01, 2.5475866e-04, 6.4212406e-01, 1.7982820e-01,
       3.2826221e-01, 2.1741933e-01, 6.8607408e-01, 1.6418285e+00,
       5.6934732e-01, 7.1107274e-01, 1.5781491e-01, 6.6418253e-02,
       1.0381274e-01, 1.7445230e-01, 6.8759388e-01, 5.6884599e-01,
       1.2568633e-01, 6.8733655e-02, 1.7252877e-01, 9.3851769e-01,
       5.4283237e-01, 1.3347636e-03, 3.6270913e-01, 1.9473423e-01,
       4.8189223e-01, 5.9274130e-04, 1.3542362e-01, 1.4260121e-01,
       9.2440985e-02, 3.5899621e-01, 1.4728481e-01, 2.0244734e-01,
       2.1366252e-01, 5.1211846e-06, 2.2406974e-01, 7.8343242e-01,
       1.3471796e-01, 1.6693453e-01, 5.4733324e-01, 7.7628189e-01,
       9.9789816e-01, 5.0197363e-01, 3.5875860e-01, 2.8819516e-01,
       2.6511949e-01, 2.4171752e-07, 1.0630662e-05, 9.1214940e-02,
       1.0768144e+00, 9.2190400e-02, 4.5996017e-05, 6.8728983e-01,
       9.3599278e-01, 8.9336194e-02, 4.6343780e-01, 6.0603601e-01,
       7.3512715e-01, 2.4400629e-06, 1.0619978e-01, 1.1523390e-01,
       1.9080861e-01, 1.8201694e-01, 1.9033141e-01, 2.5838789e-01,
       5.9967393e-01, 7.0766914e-01, 7.9632187e-01, 9.8382272e-02,
       6.5604819e-04, 9.1400921e-02, 2.0213445e-01, 3.7297425e-01,
       4.5673230e-01, 5.9418553e-01, 1.1182187e-01, 7.6551951e-06,
       1.4646982e-01, 4.4045469e-01, 1.4894325e-01, 6.1348063e-01,
       4.2267710e-02, 1.6157234e-01, 4.0155303e-01, 1.5720239e-01,
       5.7949948e-01, 6.8640149e-01, 3.4197748e-01, 1.3811539e-01,
       9.5124021e-03, 2.5841963e-01, 5.1291108e-06, 1.8937008e-01,
       7.3845345e-01, 1.5789111e-01, 1.2075438e-09, 3.3884947e-04,
       9.5386080e-02, 4.7879368e-01, 1.1049638e-01, 5.1144570e-01,
       3.2551399e-01, 3.1128732e-06, 1.6721357e-01, 4.0054213e-02],
      dtype=float32), array([[[[ 0.01007395, -0.01609726, -0.01120205, ...,  0.02220885,
           0.02314793,  0.06871336],
         [-0.15782058,  0.13313423, -0.07911906, ...,  0.13081366,
          -0.04972478, -0.06138518],
         [-0.03393311, -0.04890822,  0.03999913, ..., -0.07661378,
           0.02603616, -0.02535407],
         ...,
         [-0.09925615, -0.04879786,  0.00145021, ...,  0.00472793,
          -0.04177896, -0.05184841],
         [ 0.00026181, -0.0164179 ,  0.12258404, ..., -0.06348661,
          -0.10795   ,  0.10173432],
         [-0.04701797,  0.0166655 ,  0.05986025, ...,  0.06018601,
          -0.05554706, -0.06399723]]]], dtype=float32), array([1.0336714 , 1.198304  , 0.7459306 , 1.1760833 , 0.8172271 ,
       1.1259704 , 1.0351785 , 1.2634057 , 1.0784607 , 1.5456243 ,
       0.7085892 , 0.9233254 , 0.83120435, 1.0166763 , 1.0114973 ,
       1.1271446 , 1.403019  , 1.1503282 , 0.89037365, 0.61655843,
       1.2588975 , 1.106028  , 1.0123553 , 1.4268117 , 1.1665905 ,
       1.0527683 , 1.1204497 , 0.8545519 , 1.3798329 , 1.1228657 ,
       1.1156157 , 1.0309714 , 1.2106444 , 1.0837206 , 1.2642431 ,
       1.2901475 , 0.71599793, 0.48437953, 0.9803243 , 1.2987534 ,
       1.0367243 , 1.1586283 , 1.0801423 , 0.5448032 , 0.79322726,
       1.2646571 , 0.9099424 , 1.1955988 , 0.9177251 , 0.7553015 ,
       1.1583643 , 1.2979435 , 1.2362143 , 0.9896598 , 1.1032828 ,
       1.158121  , 1.1157393 , 1.0942141 , 1.2210912 , 1.0952384 ,
       1.0637484 , 0.9326458 , 0.6816042 , 1.1134827 ], dtype=float32), array([-0.9611331 , -0.55858904, -0.614508  , -0.5939508 , -0.22258055,
       -0.7585469 , -0.5791071 , -0.41352856,  0.6823526 , -0.7433575 ,
        0.35892022, -0.9374079 , -0.66320956,  0.5748209 , -0.433217  ,
        0.07172462, -0.8588681 ,  0.4102399 , -1.2643763 , -0.03178751,
        0.3296235 , -0.08627956, -0.20952833,  0.16392525, -0.52829134,
       -0.6452664 , -0.49379504, -0.9239049 , -0.8516521 ,  0.14445892,
        0.41936934, -1.1794211 , -0.6412215 ,  0.48757365, -0.5479997 ,
       -0.6170147 , -0.139962  ,  0.5384812 ,  0.66862184,  0.2697036 ,
       -0.6424507 , -0.7321882 , -0.3462768 , -0.01434673, -0.6291424 ,
        0.20252456, -1.1073068 ,  0.2677369 ,  0.7055246 , -0.3887172 ,
       -0.57529134, -0.99441385, -0.83714664, -0.56532395, -0.5004282 ,
       -0.05086345, -0.6337943 ,  0.0927377 , -0.5560214 , -0.6219255 ,
       -0.60946196,  0.61716664, -0.21149921, -0.5879798 ], dtype=float32), array([-0.6734681 , -0.2556741 , -0.3574359 , -1.6464097 , -0.5102363 ,
       -1.2730447 , -0.40177527, -0.35100895,  0.41442445, -1.3529402 ,
        0.16737004, -1.8580053 ,  0.2846938 ,  0.37648827, -2.070216  ,
       -1.5803972 , -2.1331713 , -0.99006796, -0.71692437, -1.7208942 ,
       -1.5308971 , -0.82080513, -0.74022174, -1.9912443 , -0.86899567,
       -2.506291  , -1.6404501 ,  0.17309256, -1.3576685 , -0.9699792 ,
        0.5174148 , -1.2743216 , -1.0349    ,  0.44552195,  0.20216186,
       -1.6181856 , -0.8171762 ,  0.5179006 , -0.11894044, -1.047986  ,
       -1.2940594 , -0.969025  , -1.6015629 , -0.7714351 , -1.0397943 ,
       -0.74675363, -1.1277187 ,  0.3421521 , -1.5652777 ,  2.5865936 ,
       -2.9686518 , -1.954546  ,  0.00971587, -0.75140566,  0.1605774 ,
       -0.89886236, -2.75889   , -1.8162328 , -1.0737362 , -2.4104652 ,
       -1.1640102 ,  0.5497946 , -0.87116647, -1.6309509 ], dtype=float32), array([0.34135005, 0.6880588 , 0.36382934, 0.63422227, 0.4877564 ,
       0.3869353 , 0.4051753 , 0.74783105, 1.0018743 , 0.90821743,
       0.47859952, 0.35773158, 0.37336627, 0.9955481 , 0.48618463,
       0.9829846 , 0.60091513, 0.88613564, 0.23543541, 0.6545071 ,
       1.7709851 , 0.8056313 , 0.8202525 , 2.2186196 , 0.670402  ,
       0.4852    , 0.5134649 , 0.31037837, 0.645601  , 1.0539856 ,
       0.986913  , 0.42733693, 0.5626813 , 1.1306937 , 0.8803588 ,
       0.74941444, 0.638214  , 1.3216171 , 0.8366566 , 1.7673703 ,
       0.46059832, 0.5015195 , 0.68505526, 0.48418045, 0.38413307,
       1.4275485 , 0.41864043, 0.7693889 , 0.68189716, 0.35428283,
       0.574283  , 0.50497144, 0.75210637, 0.8090455 , 0.65955204,
       0.9831884 , 0.5536467 , 1.1272341 , 0.74123144, 0.58911514,
       0.40828875, 0.8628666 , 0.55424345, 0.4533728 ], dtype=float32), array([[[[ 3.55294651e-06, -8.02088808e-03,  7.61509966e-03, ...,
           3.26861814e-03, -2.74770893e-02,  1.44809466e-02],
         [ 2.72442685e-05,  2.13019997e-02, -2.71556880e-02, ...,
           3.31307724e-02,  9.84984450e-03,  3.01565335e-04],
         [-7.68264442e-07, -5.03116054e-03, -3.48931439e-02, ...,
          -1.48287890e-02, -2.44857017e-02,  1.37811512e-04],
         ...,
         [ 1.58667353e-06,  1.95840299e-02, -8.08324013e-03, ...,
           3.69235687e-02,  1.74308661e-02, -2.02587936e-02],
         [ 3.04712921e-05,  1.27195595e-02,  1.56715382e-02, ...,
          -1.84922460e-02, -1.94541980e-02,  5.47293434e-03],
         [ 2.76038409e-05, -1.78491641e-02,  1.59647390e-02, ...,
          -3.38010974e-02,  2.80462019e-02, -5.88837592e-03]],

        [[-1.89189032e-05,  6.04372146e-03,  1.20284769e-03, ...,
          -2.35068500e-02, -2.42374483e-02,  1.41330902e-02],
         [ 2.79521628e-05,  1.94096100e-02, -5.75072877e-03, ...,
           1.25857424e-02, -6.41461811e-05,  5.87381795e-03],
         [-8.33323156e-06,  8.59489013e-03, -1.93916429e-02, ...,
          -1.48686124e-02, -1.47964125e-02, -4.72647101e-02],
         ...,
         [-4.38298366e-06,  1.46840150e-02, -2.18710918e-02, ...,
           3.01679838e-02, -9.19980463e-04,  1.02481758e-02],
         [ 2.84433609e-05,  4.21766285e-03, -2.47819126e-02, ...,
           9.75023955e-03, -2.19151401e-03,  2.98879109e-02],
         [ 1.24280641e-05,  4.25921660e-03,  2.37362999e-02, ...,
          -2.80621853e-02,  1.35015268e-02,  1.43165188e-02]],

        [[-1.25008019e-05,  3.40928580e-03, -1.69240721e-02, ...,
          -1.33181848e-02,  4.78745699e-02, -1.87276118e-03],
         [ 2.21219452e-05,  1.12870540e-02, -1.03174765e-02, ...,
           2.91574076e-02, -9.37698483e-02, -3.94924730e-02],
         [ 1.01129499e-05,  2.36266386e-02, -1.10692927e-03, ...,
           1.31873973e-03, -2.25631818e-02, -5.67516088e-02],
         ...,
         [-3.57139629e-06,  1.04693007e-02,  1.93481408e-02, ...,
           4.36204340e-04, -8.10095593e-02, -2.56596059e-02],
         [ 1.61677690e-05,  2.63536945e-02, -3.07801776e-02, ...,
           1.17878383e-02,  5.49225360e-02, -6.85376972e-02],
         [ 1.61308180e-05,  3.49245325e-04, -2.25396659e-02, ...,
          -2.05348805e-02,  9.57384147e-03, -1.16577474e-02]]],


       [[[-1.03869925e-05,  3.81529406e-02,  5.87645583e-02, ...,
          -8.29984993e-03,  2.03537382e-02, -1.01908343e-02],
         [-3.97657823e-05, -2.54261997e-02, -1.30879087e-02, ...,
          -2.49085184e-02, -4.74229082e-02,  7.05263205e-03],
         [-3.30551156e-05,  1.50002707e-02, -1.06680747e-02, ...,
          -2.12170556e-02, -2.51486003e-02, -9.23205353e-03],
         ...,
         [ 3.74186384e-05,  3.95867862e-02, -1.76818296e-02, ...,
           2.88947411e-02,  9.01274942e-03, -1.31921256e-02],
         [-9.87509975e-06,  1.80678368e-02, -7.84202246e-04, ...,
          -1.17066046e-02, -3.04154493e-02, -3.45607400e-02],
         [ 5.87261638e-06, -9.93899163e-03, -8.63217786e-02, ...,
          -1.24046421e-02, -2.33885320e-03, -2.73526534e-02]],

        [[-2.98359282e-05,  8.81446339e-03,  6.41170889e-02, ...,
          -3.33399996e-02, -5.30654304e-02,  4.17535454e-02],
         [-1.43325560e-05, -1.20317312e-02,  7.03765154e-02, ...,
          -2.57765595e-02, -5.19909710e-02, -3.29699665e-02],
         [-3.76004318e-05,  1.60330441e-02, -5.78838550e-02, ...,
          -2.04724558e-02, -2.64666118e-02, -8.70235711e-02],
         ...,
         [ 3.68914516e-05,  6.13634184e-04, -9.07279104e-02, ...,
          -1.48832295e-02,  1.16054781e-01,  4.79389206e-02],
         [ 2.72086236e-05,  1.37241790e-02,  3.96474153e-02, ...,
           3.26768053e-03, -8.68765712e-02, -2.15170104e-02],
         [-1.51619747e-06,  8.26850813e-03, -4.18818444e-02, ...,
           1.09346379e-02,  3.48043442e-02, -6.24459274e-02]],

        [[-2.85628012e-05,  1.27546377e-02, -4.58783954e-02, ...,
           3.17509891e-03,  4.31963690e-02, -1.65416801e-03],
         [-1.37961060e-05, -3.70831527e-02, -4.57205297e-03, ...,
          -2.66193948e-03, -3.13034728e-02, -7.27440743e-03],
         [-1.95085377e-05,  1.43865729e-02, -2.32650824e-02, ...,
          -4.13249526e-03,  1.68356374e-02, -4.23362275e-04],
         ...,
         [ 1.22896336e-05,  3.07327788e-02,  1.92127489e-02, ...,
          -1.02564050e-02, -2.10535318e-01,  1.32225687e-03],
         [ 1.86248838e-06,  3.39951515e-02, -6.63236976e-02, ...,
           5.69517054e-02,  1.92454949e-01, -5.95744066e-02],
         [ 1.94402946e-05, -6.30688062e-03,  1.36215733e-02, ...,
          -8.04501306e-03,  9.07172784e-02,  1.23961200e-03]]],


       [[[-3.66029417e-05, -4.12104797e-04,  2.69915257e-02, ...,
           4.47001979e-02,  1.49250682e-02, -3.04331561e-03],
         [-6.26890005e-06, -2.78236028e-02,  4.73705530e-02, ...,
          -1.35513162e-02, -1.55075127e-03,  4.38893097e-04],
         [-3.19517603e-05, -1.24831609e-02,  3.24673392e-02, ...,
          -1.04277227e-02, -1.39364470e-02, -3.81503487e-03],
         ...,
         [ 3.93278897e-05,  4.13072249e-03,  3.61434737e-04, ...,
           5.59587311e-03,  2.69373110e-03,  3.60081228e-03],
         [-8.40954999e-06, -1.70678720e-02, -3.61531712e-02, ...,
          -2.66372021e-02, -2.16069948e-02, -1.49869081e-02],
         [ 6.32891533e-06,  2.74138916e-02, -5.62456483e-03, ...,
          -4.42582276e-03,  2.19702665e-02, -1.55875245e-02]],

        [[-2.05631459e-05,  2.28345729e-04, -1.99406836e-02, ...,
           1.54933017e-02, -5.60119748e-04, -4.60710842e-03],
         [-2.64137525e-05, -4.11779806e-02, -8.91829748e-03, ...,
          -1.05485693e-02, -5.67369945e-02, -2.33715717e-02],
         [-2.25076274e-05, -1.86599940e-02, -5.49010262e-02, ...,
          -2.34500803e-02, -1.78327262e-02, -4.04355936e-02],
         ...,
         [ 3.73763578e-05, -7.36529764e-04, -5.53227961e-02, ...,
           1.00559443e-02,  3.42479092e-03,  3.16174664e-02],
         [-1.08721360e-05, -4.32859547e-03,  1.72476973e-02, ...,
          -3.15699466e-02, -5.56476414e-03, -5.60554527e-02],
         [ 1.57625473e-05,  1.79398479e-03, -1.15183871e-02, ...,
           3.21364729e-03,  2.07481440e-02, -3.10153998e-02]],

        [[-3.41191480e-05,  1.28229521e-02, -1.56558082e-02, ...,
          -3.39996623e-04, -4.43260260e-02,  1.00903055e-02],
         [-9.60305988e-06, -3.97985578e-02, -1.35637261e-02, ...,
          -2.05709543e-02, -3.43482718e-02, -4.20872793e-02],
         [ 9.64280389e-06, -5.84074808e-03, -6.06247131e-03, ...,
          -9.67601407e-03,  1.22671630e-02, -1.78429056e-02],
         ...,
         [ 2.45163010e-05, -3.21798548e-02, -8.42199102e-03, ...,
           4.20498475e-03,  3.94808240e-02, -4.84125055e-02],
         [ 2.14052616e-05,  1.99741814e-02, -3.66040617e-02, ...,
          -1.71979126e-02,  1.65065061e-02, -2.01658923e-02],
         [ 6.59880652e-06, -2.85816640e-02, -3.48558575e-02, ...,
           2.97168456e-02, -2.57465094e-02, -3.21680047e-02]]]],
      dtype=float32), array([ 9.81014018e-05,  1.04512727e+00,  2.10956788e+00,  3.49767506e-04,
        1.57976747e+00,  1.66069853e+00, -1.20554447e-04,  1.65984309e+00,
       -1.41816301e-04,  9.23441350e-01, -3.19777209e-05,  1.89036691e+00,
        1.48614979e+00,  1.55185187e+00,  1.01122797e+00,  1.78856945e+00,
       -3.33202042e-05,  1.46534050e+00,  1.77720094e+00,  1.53496635e+00,
        1.78357267e+00,  1.12616130e-04,  1.81705666e+00,  1.80892301e+00,
        1.76753485e+00,  1.59005022e+00,  1.61289775e+00,  1.72010660e+00,
        2.04350305e+00,  1.85640848e+00,  1.04893652e-05,  9.58412528e-01,
        1.13616085e+00,  1.18145120e+00,  1.36928189e+00,  1.41467571e+00,
        1.48740983e+00,  1.28628659e+00,  7.17919886e-01, -1.89301809e-05,
        1.17727804e+00,  1.04006958e+00,  1.76212764e+00,  8.76441181e-01,
        1.14988482e+00,  1.41386032e+00,  9.61589754e-01, -2.30392747e-04,
        3.88282508e-01,  1.81070578e+00,  1.80266392e+00,  1.49701321e+00,
       -2.62276060e-03,  1.18842769e+00, -1.60297297e-03,  1.99889696e+00,
        1.70383978e+00,  1.63930750e+00,  1.92991447e+00,  1.04249537e+00,
       -2.59479220e-05,  1.79385030e+00,  1.05557644e+00,  6.63138866e-01,
        5.81680059e-01,  6.96324646e-01, -1.32637075e-03, -1.92109830e-04,
        1.98952377e+00,  1.47115493e+00,  1.66399598e+00,  1.92272604e+00,
       -4.13939124e-04,  1.44008839e+00,  1.41688097e+00,  1.34863520e+00,
        1.10683668e+00,  1.75501692e+00,  1.65324152e+00,  1.19484282e+00,
        1.30185950e+00,  1.45052195e+00,  1.53248978e+00,  1.81761670e+00,
        1.52129316e+00,  1.73275924e+00,  1.80932868e+00,  1.36524284e+00,
        8.67508352e-01,  2.03330783e-04,  1.08965170e+00,  1.76974142e+00,
        1.28201962e+00,  4.59962815e-01,  2.62436926e-01, -1.12403526e-04,
        1.60830772e+00,  8.62998426e-01,  1.87187564e+00,  1.48036313e+00,
        1.26600194e+00,  1.78669024e+00,  1.68364024e+00,  1.05360329e+00,
        1.67506695e+00,  1.84445190e+00,  1.84864199e+00,  2.71286845e-05,
        1.57359564e+00,  1.42183471e+00,  5.30734122e-01, -3.02964658e-03,
        1.48591101e+00,  2.32911855e-03,  1.14024711e+00,  2.06084180e+00,
        1.08809769e+00,  5.12682527e-05,  1.16506529e+00,  1.18123412e+00,
        1.83278513e+00,  1.18912649e+00,  1.70533073e+00,  9.44895864e-01,
       -7.53692724e-03,  1.34282708e+00,  1.75518858e+00,  1.83001661e+00],
      dtype=float32), array([-0.3167859 , -0.99141145, -1.1842469 , -0.08721586, -0.4074972 ,
       -0.67381275, -0.69344014, -0.7372139 , -0.5881558 ,  1.7506094 ,
       -0.73389745, -0.22575039, -0.26787326, -1.1560205 , -0.27776757,
       -0.56137645, -0.5372319 , -0.0066248 ,  0.01101002, -0.4633009 ,
       -0.12113884, -0.62693477, -1.2591771 , -0.60403097, -0.29607043,
       -0.78174   , -0.54269254, -0.49688816, -0.51499814, -0.2945577 ,
       -0.8039642 , -1.0642077 , -0.34369388, -0.20048776, -0.76458895,
       -0.952266  , -0.5212328 , -0.4839744 ,  0.64331657, -0.63390607,
       -0.32981429, -0.7938383 , -0.93122137, -0.9144553 , -0.7959769 ,
       -0.5680607 , -0.50161946, -0.47438627, -0.5637769 , -0.71804136,
       -0.8009594 , -0.5931383 , -0.5493039 , -0.01746752, -0.4771403 ,
       -0.65618473, -0.75235385, -0.65280265, -0.6816489 , -0.9300243 ,
       -0.38787   , -0.78020257,  0.26793176,  0.22439088, -0.41335303,
       -0.82299805, -1.5124528 , -0.5410617 , -0.90216404, -0.69981146,
       -0.7155503 , -0.6020095 , -0.93703103, -0.67679834, -0.5714126 ,
       -0.7171875 , -0.82026076, -0.2713185 , -0.9129314 , -0.60006744,
       -0.6010871 , -0.59208196, -0.18081439, -0.7386921 , -0.88368654,
       -0.3076825 , -0.14779942,  0.18332626,  0.6308665 , -0.25145143,
       -1.0625271 , -0.57398707, -0.42723045, -0.48297104, -0.44513932,
       -0.4461905 , -0.19660074,  0.32767218, -0.31756407, -0.66101956,
       -0.33684543, -0.15375814, -0.26254073, -1.3075057 , -0.96581507,
       -0.9360224 , -0.42535603, -0.47291705, -1.0171503 , -1.0341183 ,
       -0.30465192, -0.92610264, -0.91060174,  0.10583839, -1.1568791 ,
       -0.79690015, -0.78879356, -0.5485066 , -0.4547723 , -1.1696199 ,
       -0.50370413, -0.47792545, -0.80521214, -0.34522676, -0.56336176,
       -0.89965945, -0.80607665, -0.7262853 ], dtype=float32), array([ 2.6339176e-04, -4.4548208e-01, -7.2733229e-01, -1.0470455e-03,
       -6.5485239e-01,  2.0421055e-01, -7.9919200e-04,  4.0893862e-01,
        7.4936578e-04,  7.2432116e-02, -1.2521544e-03, -2.9698247e-01,
       -4.1894153e-01, -8.6736053e-01,  5.7477510e-01,  1.7069024e-01,
        4.0006773e-05, -3.8336819e-01, -8.3528048e-01, -5.7306111e-01,
       -2.4988730e-01, -1.4374389e-04, -9.7680813e-01, -6.2297684e-01,
       -9.0217747e-02, -5.3446817e-01, -4.3966180e-01, -4.9868852e-01,
       -1.0097902e+00, -3.5944283e-01, -4.2189713e-05, -7.2620231e-01,
       -5.2061069e-01, -8.4848869e-01, -4.0275589e-01, -4.7702640e-01,
       -5.5007058e-01, -1.4896947e+00, -1.3185564e+00,  2.8127941e-04,
       -6.4255953e-01, -5.7516772e-01, -5.3858429e-01, -1.6755283e-01,
       -3.7951171e-01, -7.5604534e-01, -8.0940539e-01,  7.1888283e-04,
       -1.2889320e-01, -7.5198090e-01, -2.4828756e-01, -6.7997418e-02,
       -2.8751995e-03, -1.1795703e+00, -2.3209751e-03, -7.6467568e-01,
        2.0955423e-01, -3.9826858e-01,  2.5891564e-03, -4.5104989e-01,
        2.7711689e-04, -3.0438823e-01, -6.3770068e-01, -6.0969108e-01,
        3.9870483e-01, -3.9310807e-01,  7.3355362e-03,  6.1202567e-04,
       -1.1148076e+00, -9.1634309e-01, -9.7260284e-01, -4.2117912e-01,
       -1.7202940e-03, -3.6640322e-01, -4.1223598e-01,  4.6460110e-01,
        3.7122682e-02, -9.3596482e-01,  1.4701872e-01, -6.2368476e-01,
       -2.0367798e-01, -4.3792447e-01, -5.8549047e-01, -2.4685001e-01,
       -4.9900660e-01, -4.2702994e-01, -8.0611610e-01, -6.7658764e-01,
       -1.8328158e+00, -1.5849869e-03, -2.3560344e-01, -5.0483737e-02,
       -7.9852545e-01,  1.4736314e-01,  8.5115135e-02, -2.1818837e-03,
       -8.8269997e-01, -1.3924341e-01, -6.0849822e-01, -9.0232134e-01,
       -1.0519587e+00,  1.9467942e-02, -2.7954343e-01, -8.2284927e-01,
       -5.8843154e-01, -6.5572453e-01, -1.1089207e+00, -6.3927524e-05,
        1.8829100e-02,  1.6622213e-01, -6.1904296e-02,  1.7154942e-03,
       -1.2830614e+00, -3.1154417e-02, -4.9981371e-02, -8.5023481e-01,
       -2.9929647e-01, -6.1880611e-04, -5.8035678e-01, -1.0115479e+00,
       -3.0542430e-01, -1.1761307e-01, -9.9827118e-02, -1.2839234e-01,
        5.5992338e-03, -9.9483955e-01, -1.5259214e-01, -7.8103542e-01],
      dtype=float32), array([1.1029089e-06, 4.8755071e-01, 6.5967667e-01, 5.4638072e-06,
       8.2072490e-01, 6.3706875e-01, 1.8944971e-06, 6.9769669e-01,
       2.4252586e-06, 6.6571778e-01, 3.1177504e-07, 7.1509540e-01,
       5.4308969e-01, 3.6717159e-01, 5.7176930e-01, 8.8697010e-01,
       1.3328049e-07, 8.4131473e-01, 1.0468204e+00, 7.0913881e-01,
       1.2413776e+00, 1.9664096e-06, 5.0113112e-01, 8.1034344e-01,
       7.0909429e-01, 5.7432544e-01, 7.9157329e-01, 7.3408121e-01,
       1.1920304e+00, 9.5538509e-01, 2.5897418e-08, 3.5974428e-01,
       3.3067653e-01, 3.7250745e-01, 5.7849598e-01, 4.3017781e-01,
       9.4618618e-01, 5.0797093e-01, 5.4957265e-01, 9.1637602e-08,
       8.8422877e-01, 3.3781219e-01, 6.6796869e-01, 3.3408234e-01,
       3.4782332e-01, 7.8865510e-01, 5.3305095e-01, 4.9908144e-06,
       3.9378017e-01, 6.7615044e-01, 9.1144168e-01, 5.8838004e-01,
       1.2818087e-04, 4.1267166e-01, 2.4451068e-04, 8.1248611e-01,
       6.7682779e-01, 7.5991237e-01, 8.0677313e-01, 3.4525377e-01,
       7.1840418e-08, 5.7922840e-01, 4.1859308e-01, 4.8870796e-01,
       2.7032506e-01, 3.4676108e-01, 1.1745705e-04, 3.4009070e-06,
       8.6311609e-01, 4.8467249e-01, 6.0971200e-01, 1.0511367e+00,
       2.5439276e-05, 6.9770646e-01, 8.8813847e-01, 4.3992129e-01,
       3.9408571e-01, 1.0939090e+00, 4.8098862e-01, 3.5433748e-01,
       3.4931639e-01, 7.1551013e-01, 9.1224527e-01, 6.7142147e-01,
       6.3584387e-01, 1.0806710e+00, 1.3308331e+00, 6.6207618e-01,
       4.4005004e-01, 4.8884472e-06, 2.6740307e-01, 8.3259225e-01,
       8.1396753e-01, 1.7231749e-01, 6.2089961e-02, 2.1697176e-06,
       6.2776363e-01, 5.4739755e-01, 1.0573423e+00, 7.6707751e-01,
       9.1175658e-01, 7.9574734e-01, 5.5644369e-01, 3.3582506e-01,
       6.4808965e-01, 6.8723667e-01, 1.1202261e+00, 3.2621369e-07,
       4.9822542e-01, 4.1753352e-01, 2.4545991e-01, 2.7682859e-04,
       4.7747263e-01, 3.7108478e-03, 3.0378932e-01, 1.0926049e+00,
       2.6213032e-01, 3.4076990e-07, 6.5298647e-01, 4.0219668e-01,
       9.3831420e-01, 4.2018127e-01, 7.5383794e-01, 2.8722176e-01,
       9.3518500e-04, 2.4576935e-01, 7.1240515e-01, 8.7143362e-01],
      dtype=float32), array([[[[-2.97006816e-02,  2.08339468e-02,  1.68229248e-02, ...,
           1.33380089e-02, -1.21709444e-02, -3.62365972e-03],
         [-1.60295907e-02, -3.37753608e-03, -4.92226053e-03, ...,
          -4.58507473e-03, -1.38013549e-02,  2.61854790e-02],
         [ 3.48164816e-03, -8.23012926e-03, -3.58921327e-02, ...,
          -5.42342849e-03, -1.47396023e-03, -2.27782726e-02],
         ...,
         [ 1.19417235e-02, -1.00408755e-02,  2.00147945e-02, ...,
           1.33011220e-02, -1.24302655e-02,  3.82988937e-02],
         [-1.79460440e-02,  1.75226834e-02,  2.08636886e-03, ...,
           6.12027245e-04,  5.73034696e-02, -8.26472603e-03],
